{"learner":{"attributes":{"scikit_learn":"{\"_estimator_type\": \"classifier\"}"},"feature_names":["route_length_km","avg_altitude","max_altitude","min_distance_to_no_fly","wind_speed_avg","gust_max","battery_margin","waypoints_over_buildings","line_of_sight_flag","terrain_roughness","weather_severity","route_complexity"],"feature_types":["float","float","float","float","float","float","float","int","int","float","float","float"],"gradient_booster":{"model":{"gbtree_model_param":{"num_parallel_tree":"1","num_trees":"200"},"iteration_indptr":[0,1,2,3,4,5,6,7,8,9,10,11,12,13,14,15,16,17,18,19,20,21,22,23,24,25,26,27,28,29,30,31,32,33,34,35,36,37,38,39,40,41,42,43,44,45,46,47,48,49,50,51,52,53,54,55,56,57,58,59,60,61,62,63,64,65,66,67,68,69,70,71,72,73,74,75,76,77,78,79,80,81,82,83,84,85,86,87,88,89,90,91,92,93,94,95,96,97,98,99,100,101,102,103,104,105,106,107,108,109,110,111,112,113,114,115,116,117,118,119,120,121,122,123,124,125,126,127,128,129,130,131,132,133,134,135,136,137,138,139,140,141,142,143,144,145,146,147,148,149,150,151,152,153,154,155,156,157,158,159,160,161,162,163,164,165,166,167,168,169,170,171,172,173,174,175,176,177,178,179,180,181,182,183,184,185,186,187,188,189,190,191,192,193,194,195,196,197,198,199,200],"tree_info":[0,0,0,0,0,0,0,0,0,0,0,0,0,0,0,0,0,0,0,0,0,0,0,0,0,0,0,0,0,0,0,0,0,0,0,0,0,0,0,0,0,0,0,0,0,0,0,0,0,0,0,0,0,0,0,0,0,0,0,0,0,0,0,0,0,0,0,0,0,0,0,0,0,0,0,0,0,0,0,0,0,0,0,0,0,0,0,0,0,0,0,0,0,0,0,0,0,0,0,0,0,0,0,0,0,0,0,0,0,0,0,0,0,0,0,0,0,0,0,0,0,0,0,0,0,0,0,0,0,0,0,0,0,0,0,0,0,0,0,0,0,0,0,0,0,0,0,0,0,0,0,0,0,0,0,0,0,0,0,0,0,0,0,0,0,0,0,0,0,0,0,0,0,0,0,0,0,0,0,0,0,0,0,0,0,0,0,0,0,0,0,0,0,0,0,0,0,0,0,0],"trees":[{"base_weights":[8.131502E-3,-1.1642344E0,5.0425476E-1,-1.5694054E0,-7.1481746E-1,-2.8769726E-2,6.1992365E-1,-1.858232E0,-8.552923E-1,-1.1339616E0,-2.4872263E-1,-3.1342924E-1,4.1237327E-1,5.056236E-1,8.892015E-1,-2.322429E0,-1.6275265E0,-5.0899893E-1,-1.2206812E0,-1.3803772E0,-5.744029E-1,-1.8511587E-1,-1.4833899E0,-5.2416736E-1,7.995668E-2,-5.605241E-1,4.5658216E-1,6.94977E-2,5.2934414E-1,9.0891874E-1,1.5833116E-1,-2.394158E0,2.4723904E-2,-3.6453038E-1,-1.6989175E0,-1.4247742E0,-3.1687337E-1,-1.396859E0,2.3746012E-1,-1.8446873E-1,-1.4621369E0,-8.313352E-3,-1.0743302E0,-3.3543864E-1,1.5119947E-1,-2.2726527E-1,-5.3768366E-4,2.4904576E-1,-6.4392984E-1,-1.5752827E-1,1.9461155E-1,3.222315E-2,-1.3168636E-1,8.4207046E-1,3.4314063E-1,2.2435103E-1,-7.221814E-1,5.352107E-1,-1.1139591E-1,5.722796E-1,9.369622E-1,-1.3613182E-1,7.348833E-1,-1.3347596E-1,-2.640283E-1,-1.3605714E-1,9.247536E-2,1.5955132E-2,-1.7202646E-1,1.5955132E-2,-1.8138817E-1,5.485774E-2,-5.6976136E-2,2.1162592E-2,-1.5386425E-1,-8.2472526E-2,8.643892E-2,-7.675188E-2,3.6607455E-2,-1.1298367E-1,-1.9275585E-1,-4.9401484E-2,6.876266E-2,-1.977909E-1,-6.305387E-2,2.108137E-2,-5.928385E-2,-1.465855E-2,5.8334004E-2,8.037431E-2,-7.391387E-2,-4.6184745E-2,-1.4273222E-1,5.986109E-2,-2.5968734E-2,-5.3768366E-4,9.458213E-2,-2.0917771E-2,5.484627E-2,-1.1139591E-1,3.3529934E-2,-1.08263396E-1,2.4723904E-2,6.541347E-2,4.9905594E-2,8.6705275E-2,5.83757E-3,6.978788E-2,1.00930765E-1,-9.865592E-3,1.00496076E-1],"categories":[],"categories_nodes":[],"categories_segments":[],"categories_sizes":[],"default_left":[0,0,0,0,0,0,0,0,0,0,0,0,0,0,0,0,0,0,0,0,0,0,0,0,0,0,0,0,0,0,0,0,0,0,0,0,0,0,0,0,0,0,0,0,0,0,0,0,0,0,0,0,0,0,0,0,0,0,0,0,0,0,0,0,0,0,0,0,0,0,0,0,0,0,0,0,0,0,0,0,0,0,0,0,0,0,0,0,0,0,0,0,0,0,0,0,0,0,0,0,0,0,0,0,0,0,0,0,0,0,0],"id":0,"left_children":[1,3,5,7,9,11,13,15,17,19,21,23,25,27,29,31,33,35,37,39,41,43,45,47,49,51,53,55,57,59,61,63,-1,65,67,69,71,73,75,77,79,81,83,85,87,-1,-1,89,91,-1,93,-1,-1,95,97,99,101,103,-1,105,107,-1,109,-1,-1,-1,-1,-1,-1,-1,-1,-1,-1,-1,-1,-1,-1,-1,-1,-1,-1,-1,-1,-1,-1,-1,-1,-1,-1,-1,-1,-1,-1,-1,-1,-1,-1,-1,-1,-1,-1,-1,-1,-1,-1,-1,-1,-1,-1,-1,-1],"loss_changes":[7.962613E2,7.300214E1,5.9324203E1,4.239203E1,3.7781E1,2.1787962E1,2.3878967E1,1.2388672E1,7.38319E0,1.3313049E1,7.070722E0,8.779624E0,3.1839533E0,5.727722E0,3.2313538E0,9.399048E0,8.775604E0,5.5648165E0,8.055565E0,6.6052246E0,9.327481E0,4.6053767E0,5.1670237E0,6.5281086E0,7.448831E0,2.6996512E0,2.582775E0,3.8269224E0,5.689575E0,1.6148987E0,7.452156E0,8.620728E0,0E0,1.0051886E1,4.176178E0,3.7686386E0,6.7800617E0,6.476467E0,3.4403691E0,2.0925877E0,7.978485E0,5.9099946E0,5.774847E0,8.923065E0,3.7554302E0,0E0,0E0,6.044573E0,7.8737907E0,0E0,6.778598E0,0E0,0E0,1.2574072E0,6.059938E0,4.199445E0,2.059476E0,1.9400024E0,0E0,2.9928808E0,2.9065552E0,0E0,1.4471097E0,0E0,0E0,0E0,0E0,0E0,0E0,0E0,0E0,0E0,0E0,0E0,0E0,0E0,0E0,0E0,0E0,0E0,0E0,0E0,0E0,0E0,0E0,0E0,0E0,0E0,0E0,0E0,0E0,0E0,0E0,0E0,0E0,0E0,0E0,0E0,0E0,0E0,0E0,0E0,0E0,0E0,0E0,0E0,0E0,0E0,0E0,0E0,0E0],"parents":[2147483647,0,0,1,1,2,2,3,3,4,4,5,5,6,6,7,7,8,8,9,9,10,10,11,11,12,12,13,13,14,14,15,15,16,16,17,17,18,18,19,19,20,20,21,21,22,22,23,23,24,24,25,25,26,26,27,27,28,28,29,29,30,30,31,31,33,33,34,34,35,35,36,36,37,37,38,38,39,39,40,40,41,41,42,42,43,43,44,44,47,47,48,48,50,50,53,53,54,54,55,55,56,56,57,57,59,59,60,60,62,62],"right_children":[2,4,6,8,10,12,14,16,18,20,22,24,26,28,30,32,34,36,38,40,42,44,46,48,50,52,54,56,58,60,62,64,-1,66,68,70,72,74,76,78,80,82,84,86,88,-1,-1,90,92,-1,94,-1,-1,96,98,100,102,104,-1,106,108,-1,110,-1,-1,-1,-1,-1,-1,-1,-1,-1,-1,-1,-1,-1,-1,-1,-1,-1,-1,-1,-1,-1,-1,-1,-1,-1,-1,-1,-1,-1,-1,-1,-1,-1,-1,-1,-1,-1,-1,-1,-1,-1,-1,-1,-1,-1,-1,-1,-1],"split_conditions":[2.8557765E0,1.4106758E0,4.4454117E0,8.296028E-1,3.8125596E0,4.7868295E0,5.9796147E0,1E0,4.101731E-1,2.4031742E0,1.66236E0,4.945697E-1,1.248714E-2,4.8745685E0,3.177626E2,1.7707336E2,5.9033845E-2,1.13109505E2,2.5771136E2,1.49604E-1,1.2995075E0,3.5174692E-1,1.923788E0,8.737682E1,9.674086E-2,1.0334854E1,7.897664E-1,2.1584306E2,2.7340658E0,4.6907791E-1,5.782225E-1,2.693923E-1,2.4723904E-2,1.2033953E2,3.241865E-2,6.4057474E0,1.0511649E2,5.9033845E-2,7.334039E-2,2.2007553E-1,2.982276E-1,1.7868922E2,3.5945404E-1,2.1018268E-1,1.6811673E2,-2.2726527E-1,-5.3768366E-4,4.2487422E-1,3.3123515E0,-1.5752827E-1,4.412233E-1,3.222315E-2,-1.3168636E-1,5.828097E-1,7.4981127E0,2.0528439E-1,4.716405E0,1.3056579E-1,-1.1139591E-1,5.2248484E-1,1.3787055E-1,-1.3613182E-1,1.23686984E-1,-1.3347596E-1,-2.640283E-1,-1.3605714E-1,9.247536E-2,1.5955132E-2,-1.7202646E-1,1.5955132E-2,-1.8138817E-1,5.485774E-2,-5.6976136E-2,2.1162592E-2,-1.5386425E-1,-8.2472526E-2,8.643892E-2,-7.675188E-2,3.6607455E-2,-1.1298367E-1,-1.9275585E-1,-4.9401484E-2,6.876266E-2,-1.977909E-1,-6.305387E-2,2.108137E-2,-5.928385E-2,-1.465855E-2,5.8334004E-2,8.037431E-2,-7.391387E-2,-4.6184745E-2,-1.4273222E-1,5.986109E-2,-2.5968734E-2,-5.3768366E-4,9.458213E-2,-2.0917771E-2,5.484627E-2,-1.1139591E-1,3.3529934E-2,-1.08263396E-1,2.4723904E-2,6.541347E-2,4.9905594E-2,8.6705275E-2,5.83757E-3,6.978788E-2,1.00930765E-1,-9.865592E-3,1.00496076E-1],"split_indices":[4,4,4,11,0,0,0,8,9,4,9,9,9,4,2,1,10,2,2,0,0,10,4,1,11,0,11,2,9,10,10,11,0,1,11,0,1,10,10,9,10,2,11,10,2,0,0,10,0,0,11,0,0,11,0,0,4,9,0,9,9,0,9,0,0,0,0,0,0,0,0,0,0,0,0,0,0,0,0,0,0,0,0,0,0,0,0,0,0,0,0,0,0,0,0,0,0,0,0,0,0,0,0,0,0,0,0,0,0,0,0],"split_type":[0,0,0,0,0,0,0,0,0,0,0,0,0,0,0,0,0,0,0,0,0,0,0,0,0,0,0,0,0,0,0,0,0,0,0,0,0,0,0,0,0,0,0,0,0,0,0,0,0,0,0,0,0,0,0,0,0,0,0,0,0,0,0,0,0,0,0,0,0,0,0,0,0,0,0,0,0,0,0,0,0,0,0,0,0,0,0,0,0,0,0,0,0,0,0,0,0,0,0,0,0,0,0,0,0,0,0,0,0,0,0],"sum_hessian":[1.3669886E3,4.06072E2,9.609167E2,2.1223755E2,1.9383446E2,1.7147556E2,7.894411E2,1.4997661E2,6.2260933E1,1.0130301E2,9.253144E1,1.0439886E2,6.70767E1,5.562206E2,2.332205E2,4.6781696E1,1.03194916E2,3.3194366E1,2.9066568E1,6.9312584E1,3.1990423E1,8.909161E1,3.4398305E0,6.776466E1,3.6634193E1,2.4078813E0,6.4668816E1,2.8894577E1,5.2732605E2,2.2685683E2,6.3636866E0,4.5577755E1,1.2039406E0,5.847712E0,9.7347206E1,4.643771E0,2.8550594E1,2.597072E1,3.0958476E0,4.643771E0,6.4668816E1,1.5479238E1,1.6511187E1,6.1572968E1,2.7518644E1,1.8919067E0,1.5479238E0,8.94356E0,5.8821102E1,1.5479238E0,3.5086273E1,1.3759322E0,1.0319492E0,1.3243347E1,5.142547E1,2.476678E1,4.1277966E0,5.261221E2,1.2039406E0,1.9091059E1,2.0776576E2,1.3759322E0,4.9877543E0,9.803517E0,3.577424E1,3.267839E0,2.5798728E0,1.0319492E0,9.6315254E1,1.0319492E0,3.6118221E0,6.191695E0,2.2358898E1,2.0638983E0,2.3906822E1,1.0319492E0,2.0638983E0,2.0638983E0,2.5798728E0,3.973004E1,2.4938772E1,9.287542E0,6.191695E0,4.299788E0,1.2211398E1,1.9779026E1,4.179394E1,1.6683178E1,1.0835466E1,5.847712E0,3.0958476E0,4.9017586E1,9.803517E0,1.8403093E1,1.6683178E1,1.5479238E0,1.1695424E1,1.39313135E1,3.7494152E1,1.2039406E0,2.356284E1,2.923856E0,1.2039406E0,1.1867416E2,4.0744794E2,1.1695424E1,7.3956356E0,5.07375E1,1.5702826E2,1.3759322E0,3.6118221E0],"tree_param":{"num_deleted":"0","num_feature":"12","num_nodes":"111","size_leaf_vector":"1"}},{"base_weights":[-3.8115843E-3,8.248472E-1,-1.423561E0,-5.873059E-1,1.0244049E0,6.81244E-1,-2.3497653E0,1.0799276E0,-1.361955E0,4.51831E-1,1.1681058E0,-1.5804131E0,9.8770016E-1,-3.4503875E0,-1.3085526E0,4.8240975E-1,1.2310104E0,-1.5008669E-1,-3.1076384E0,1.0900059E0,-6.438356E-1,1.2570775E-1,9.920455E-1,-2.1401494E0,7.790368E-1,4.9654555E-2,1.2298822E0,-3.8456824E0,-2.5160828E0,-1.7273333E0,-2.862165E-1,9.56449E-1,-5.4691476E-1,1.2650566E-1,2.256017E-2,-9.063891E-1,7.678053E-1,-3.3135998E0,-5.3068346E-1,1.2912455E-1,8.6266077E-1,1.2462481E-1,-1.5527736E0,4.2408454E-1,1.1381038E0,-2.80551E0,-5.9108996E-1,1.71756E-2,9.180149E-2,-1.0165639E0,6.7021596E-1,6.921707E-1,1.24631785E-1,-3.8662148E-1,-1.0589395E-1,-1.4815593E0,-3.7953183E-1,-1.9225712E0,-1.0895219E0,8.4038305E-1,-1.774E0,1.073223E-1,2.0298164E-2,-1.023482E-1,2.2522725E-2,-1.7011392E-1,-4.363978E-2,-1.0819523E-2,9.053161E-2,-3.3919507E-1,-7.331426E-2,-1.2994511E-1,6.495908E-2,9.4150394E-2,-2.8215382E-2,-1.9521625E-1,-5.8103092E-2,1.0715743E-1,-1.1066775E-2,1.1478331E-1,5.049416E-2,-3.0228183E-1,-1.18301705E-1,2.3197582E-2,-1.5121685E-1,-1.3768558E-1,2.9965136E-2,7.94917E-3,1.1771172E-1,1.001552E-1,-3.272972E-2,-2.6411125E-1,-1.8613832E-2,-2.0657717E-1,-1.21779755E-1,2.905574E-3,-1.2852772E-1,-1.5828447E-2,8.883517E-2,-2.0944424E-1,-5.3613316E-3],"categories":[],"categories_nodes":[],"categories_segments":[],"categories_sizes":[],"default_left":[0,0,0,0,0,0,0,0,0,0,0,0,0,0,0,0,0,0,0,0,0,0,0,0,0,0,0,0,0,0,0,0,0,0,0,0,0,0,0,0,0,0,0,0,0,0,0,0,0,0,0,0,0,0,0,0,0,0,0,0,0,0,0,0,0,0,0,0,0,0,0,0,0,0,0,0,0,0,0,0,0,0,0,0,0,0,0,0,0,0,0,0,0,0,0,0,0,0,0,0,0],"id":1,"left_children":[1,3,5,7,9,11,13,15,17,19,21,23,25,27,29,31,33,35,37,39,41,-1,43,45,47,49,51,53,55,57,59,61,63,-1,-1,65,67,69,71,-1,73,-1,75,77,79,81,83,-1,-1,85,87,89,-1,-1,-1,91,-1,93,95,97,99,-1,-1,-1,-1,-1,-1,-1,-1,-1,-1,-1,-1,-1,-1,-1,-1,-1,-1,-1,-1,-1,-1,-1,-1,-1,-1,-1,-1,-1,-1,-1,-1,-1,-1,-1,-1,-1,-1,-1,-1],"loss_changes":[1.62533E3,2.4643585E2,9.9419666E2,1.4179192E2,6.2391663E1,1.0993544E2,4.0093042E2,2.5679893E0,1.5740211E2,1.09115456E2,8.31842E0,2.6817429E1,3.1361893E1,5.3619385E1,7.80325E1,4.7745667E0,6.494751E-1,3.200236E1,1.4443573E1,3.3857193E0,1.01057014E2,0E0,1.6916534E1,1.4481041E1,2.1238065E-1,2.0150488E1,1.0853577E-1,2.6882324E0,6.563486E1,1.4083282E1,9.283758E1,3.390584E-1,1.4756095E0,0E0,0E0,8.664263E0,2.6171818E0,3.1897278E0,3.9744315E0,0E0,4.7058372E0,0E0,1.4159378E1,1.5525944E1,4.4448853E-1,1.9199371E-1,4.8781424E0,0E0,0E0,5.7346296E0,5.6563425E0,2.0651937E0,0E0,0E0,0E0,4.668965E1,0E0,7.3911743E0,7.2098656E0,1.6588192E0,1.301165E1,0E0,0E0,0E0,0E0,0E0,0E0,0E0,0E0,0E0,0E0,0E0,0E0,0E0,0E0,0E0,0E0,0E0,0E0,0E0,0E0,0E0,0E0,0E0,0E0,0E0,0E0,0E0,0E0,0E0,0E0,0E0,0E0,0E0,0E0,0E0,0E0,0E0,0E0,0E0,0E0],"parents":[2147483647,0,0,1,1,2,2,3,3,4,4,5,5,6,6,7,7,8,8,9,9,10,10,11,11,12,12,13,13,14,14,15,15,16,16,17,17,18,18,19,19,20,20,22,22,23,23,24,24,25,25,26,26,27,27,28,28,29,29,30,30,31,31,32,32,35,35,36,36,37,37,38,38,40,40,42,42,43,43,44,44,45,45,46,46,49,49,50,50,51,51,55,55,57,57,58,58,59,59,60,60],"right_children":[2,4,6,8,10,12,14,16,18,20,22,24,26,28,30,32,34,36,38,40,42,-1,44,46,48,50,52,54,56,58,60,62,64,-1,-1,66,68,70,72,-1,74,-1,76,78,80,82,84,-1,-1,86,88,90,-1,-1,-1,92,-1,94,96,98,100,-1,-1,-1,-1,-1,-1,-1,-1,-1,-1,-1,-1,-1,-1,-1,-1,-1,-1,-1,-1,-1,-1,-1,-1,-1,-1,-1,-1,-1,-1,-1,-1,-1,-1,-1,-1,-1,-1,-1,-1],"split_conditions":[1.00440454E3,3.778008E0,1.4957606E1,1.5546229E1,2.5797808E0,3.8579898E0,4.9225993E0,1.8010749E0,4.7706067E2,5.128524E2,5.480479E2,6.261081E0,2.7271972E0,5.915791E0,6.066662E0,5.831582E2,1.5061124E1,1.2538415E0,2.5797808E0,1.988787E1,1.5061124E1,1.2570775E-1,4.4892635E0,1.5626664E0,8.416825E-2,4.366449E-1,3.2406585E0,3.4633646E2,2.4974623E1,2.0453087E2,2.4974623E1,1.3690109E1,1.7395958E2,1.2650566E-1,2.256017E-2,1.3804603E0,1.9823745E-1,1.2733523E0,4.3963175E0,1.2912455E-1,4.6620325E2,1.2462481E-1,4.7868295E0,1.7948376E1,9.926283E2,3.0475159E0,1.3200494E2,1.71756E-2,9.180149E-2,1.1215078E1,5.5715413E0,1.1156659E1,1.24631785E-1,-3.8662148E-1,-1.0589395E-1,2.034203E0,-3.7953183E-1,2.5372955E1,1.8165913E1,1.5546229E1,2.6496577E3,1.073223E-1,2.0298164E-2,-1.023482E-1,2.2522725E-2,-1.7011392E-1,-4.363978E-2,-1.0819523E-2,9.053161E-2,-3.3919507E-1,-7.331426E-2,-1.2994511E-1,6.495908E-2,9.4150394E-2,-2.8215382E-2,-1.9521625E-1,-5.8103092E-2,1.0715743E-1,-1.1066775E-2,1.1478331E-1,5.049416E-2,-3.0228183E-1,-1.18301705E-1,2.3197582E-2,-1.5121685E-1,-1.3768558E-1,2.9965136E-2,7.94917E-3,1.1771172E-1,1.001552E-1,-3.272972E-2,-2.6411125E-1,-1.8613832E-2,-2.0657717E-1,-1.21779755E-1,2.905574E-3,-1.2852772E-1,-1.5828447E-2,8.883517E-2,-2.0944424E-1,-5.3613316E-3],"split_indices":[3,5,6,6,4,5,4,0,3,3,3,0,4,0,0,3,6,4,4,6,6,0,4,4,9,11,4,2,6,2,6,6,2,0,0,5,11,9,0,0,3,0,0,6,3,5,1,0,0,5,0,6,0,0,0,4,0,5,6,6,3,0,0,0,0,0,0,0,0,0,0,0,0,0,0,0,0,0,0,0,0,0,0,0,0,0,0,0,0,0,0,0,0,0,0,0,0,0,0,0,0],"split_type":[0,0,0,0,0,0,0,0,0,0,0,0,0,0,0,0,0,0,0,0,0,0,0,0,0,0,0,0,0,0,0,0,0,0,0,0,0,0,0,0,0,0,0,0,0,0,0,0,0,0,0,0,0,0,0,0,0,0,0,0,0,0,0,0,0,0,0,0,0,0,0,0,0,0,0,0,0,0,0,0,0,0,0,0,0,0,0,0,0,0,0,0,0,0,0,0,0,0,0,0,0],"sum_hessian":[1.3795121E3,8.713526E2,5.081595E2,1.0764796E2,7.6370465E2,1.5536226E2,3.527972E2,3.4024616E1,7.362334E1,1.540479E2,6.0965674E2,1.8043503E1,1.3731876E2,1.703809E2,1.824163E2,7.7130995E0,2.6311516E1,4.409688E1,2.9526457E1,9.735076E1,5.669713E1,4.0091534E2,2.0874141E2,1.4658895E1,3.384608E0,2.8425001E1,1.0889375E2,1.1753636E2,5.2844543E1,1.2891791E2,5.349839E1,5.3294873E0,2.3836122E0,2.5199924E1,1.1115919E0,2.4183378E1,1.9913504E1,2.7076523E1,2.4499326E0,4.91579E1,4.8192863E1,1.8290985E1,3.8406143E1,4.3498203E1,1.6524321E2,9.686982E0,4.9719133E0,1.0467145E0,2.3378935E0,1.0222708E1,1.8202293E1,4.508448E0,1.0438531E2,1.16292175E2,1.2441924E0,3.041E1,2.2434544E1,9.716179E1,3.1756128E1,3.0692299E1,2.2806093E1,4.2469125E0,1.082575E0,1.2726318E0,1.1109805E0,8.013362E0,1.6170017E1,2.7307425E0,1.7182762E1,2.5973413E1,1.10311E0,1.4224504E0,1.0274823E0,4.5253834E1,2.939029E0,2.6504E1,1.1902145E1,1.9221056E1,2.4277147E1,1.6194193E2,3.3012838E0,7.781675E0,1.905307E0,3.0207505E0,1.9511626E0,7.989612E0,2.2330952E0,8.940352E0,9.261942E0,3.4722779E0,1.0361701E0,1.5498355E1,1.4911646E1,7.9148735E1,1.8013054E1,4.8565536E0,2.6899574E1,1.3012649E0,2.9391035E1,1.9041891E1,3.764202E0],"tree_param":{"num_deleted":"0","num_feature":"12","num_nodes":"101","size_leaf_vector":"1"}},{"base_weights":[9.674193E-3,7.8245944E-1,-1.1749538E0,-5.216779E-1,9.8752207E-1,-2.0334969E0,-4.7738558E-1,3.045021E-1,-1.6757962E0,4.9193415E-1,1.131452E0,-2.320742E0,-1.314782E0,-7.2214365E-1,1.2124037E-1,-5.173698E-1,5.577651E-1,-1.9754976E0,-2.677958E-1,1.0965381E0,-3.6439642E-1,1.2240123E-1,9.66845E-1,-2.4242387E0,-1.601964E0,-2.0764253E0,-1.0144461E0,-1.5214915E0,-6.379454E-1,-3.294E-1,2.829475E-1,-9.026831E-1,6.0935766E-1,3.2819897E-1,9.5006305E-1,-2.09758E0,4.59181E-2,-7.439617E-1,6.848963E-1,1.1139047E0,2.0306745E-1,-5.8542234E-1,1.8913642E-1,3.9318177E-1,1.0844772E0,-2.6341212E0,-2.1798933E0,-1.01057164E-1,-1.8367693E0,-2.1975782E0,-1.7262755E-2,-1.3265935E0,-3.6887914E-1,-1.8333596E0,-1.9049543E-1,-2.1046758E-2,-7.171991E-1,-1.0685911E-1,-1.3042945E0,-6.3007313E-1,3.951954E-1,1.1665849E-2,-1.280475E-1,8.764026E-2,6.569645E-3,4.32145E-3,9.748268E-2,-1.743474E-2,1.0406872E-1,-2.4155064E-1,-1.3024102E-1,1.7282948E-2,-1.801468E-1,8.025393E-2,2.090651E-2,3.025477E-2,1.1316222E-1,-3.566725E-2,6.553893E-2,-8.269626E-2,-1.2542242E-2,5.1652957E-2,-5.586725E-2,2.951239E-3,7.028838E-2,8.2562804E-2,1.13998346E-1,-2.6974863E-1,-1.2399989E-1,-2.2887845E-1,-1.1914015E-1,6.0877185E-2,-1.1899811E-1,1.7185932E-2,-1.948999E-1,-9.47523E-2,-2.3500843E-1,-4.9512185E-2,-1.4188127E-1,5.2067554E-3,-1.14606194E-1,1.8329302E-2,-1.9912319E-1,-9.0668134E-2,7.9271875E-2,4.6256173E-2,-7.914368E-2,-3.509509E-2,-8.520897E-2,-7.059632E-2,3.4736868E-2,-3.176619E-2,-1.522985E-1,-1.1673688E-1,5.210438E-2,8.605253E-2,2.1267898E-2],"categories":[],"categories_nodes":[],"categories_segments":[],"categories_sizes":[],"default_left":[0,0,0,0,0,0,0,0,0,0,0,0,0,0,0,0,0,0,0,0,0,0,0,0,0,0,0,0,0,0,0,0,0,0,0,0,0,0,0,0,0,0,0,0,0,0,0,0,0,0,0,0,0,0,0,0,0,0,0,0,0,0,0,0,0,0,0,0,0,0,0,0,0,0,0,0,0,0,0,0,0,0,0,0,0,0,0,0,0,0,0,0,0,0,0,0,0,0,0,0,0,0,0,0,0,0,0,0,0,0,0,0,0,0,0,0,0],"id":2,"left_children":[1,3,5,7,9,11,13,15,17,19,21,23,25,27,29,31,33,35,37,39,41,-1,43,45,47,49,51,53,55,57,59,61,63,65,67,69,-1,71,73,75,77,79,81,83,85,87,89,91,93,95,-1,97,99,101,103,105,107,109,111,113,115,-1,-1,-1,-1,-1,-1,-1,-1,-1,-1,-1,-1,-1,-1,-1,-1,-1,-1,-1,-1,-1,-1,-1,-1,-1,-1,-1,-1,-1,-1,-1,-1,-1,-1,-1,-1,-1,-1,-1,-1,-1,-1,-1,-1,-1,-1,-1,-1,-1,-1,-1,-1,-1,-1,-1,-1],"loss_changes":[1.2494403E3,2.214072E2,3.2173175E2,1.0814681E2,5.037982E1,4.6751953E1,4.3836975E1,1.4158712E1,1.9409164E1,8.4524124E1,7.236267E0,8.840942E0,1.4178474E1,1.3303291E1,6.470271E0,7.589983E0,4.318961E0,1.2495773E1,4.795996E0,1.2554855E0,8.429474E0,0E0,1.331665E1,1.8258057E0,8.440731E0,4.044098E0,1.0193405E1,7.740349E0,9.450005E0,4.974597E0,6.9042645E0,4.9578943E0,6.290237E-1,6.2169933E0,2.061905E0,6.2399597E0,0E0,6.8841443E0,3.7632227E-2,1.0009308E0,1.0043505E0,5.32234E0,5.2239084E0,4.0590773E0,1.4788055E0,3.2438354E0,5.2369385E0,4.101832E0,5.0932617E0,1.194397E0,0E0,2.0080185E0,6.165539E0,5.3548546E0,4.109645E0,8.961207E0,8.17482E0,5.7640724E0,4.4217348E-1,5.2438874E0,4.780656E0,0E0,0E0,0E0,0E0,0E0,0E0,0E0,0E0,0E0,0E0,0E0,0E0,0E0,0E0,0E0,0E0,0E0,0E0,0E0,0E0,0E0,0E0,0E0,0E0,0E0,0E0,0E0,0E0,0E0,0E0,0E0,0E0,0E0,0E0,0E0,0E0,0E0,0E0,0E0,0E0,0E0,0E0,0E0,0E0,0E0,0E0,0E0,0E0,0E0,0E0,0E0,0E0,0E0,0E0,0E0,0E0],"parents":[2147483647,0,0,1,1,2,2,3,3,4,4,5,5,6,6,7,7,8,8,9,9,10,10,11,11,12,12,13,13,14,14,15,15,16,16,17,17,18,18,19,19,20,20,22,22,23,23,24,24,25,25,26,26,27,27,28,28,29,29,30,30,31,31,32,32,33,33,34,34,35,35,37,37,38,38,39,39,40,40,41,41,42,42,43,43,44,44,45,45,46,46,47,47,48,48,49,49,51,51,52,52,53,53,54,54,55,55,56,56,57,57,58,58,59,59,60,60],"right_children":[2,4,6,8,10,12,14,16,18,20,22,24,26,28,30,32,34,36,38,40,42,-1,44,46,48,50,52,54,56,58,60,62,64,66,68,70,-1,72,74,76,78,80,82,84,86,88,90,92,94,96,-1,98,100,102,104,106,108,110,112,114,116,-1,-1,-1,-1,-1,-1,-1,-1,-1,-1,-1,-1,-1,-1,-1,-1,-1,-1,-1,-1,-1,-1,-1,-1,-1,-1,-1,-1,-1,-1,-1,-1,-1,-1,-1,-1,-1,-1,-1,-1,-1,-1,-1,-1,-1,-1,-1,-1,-1,-1,-1,-1,-1,-1,-1,-1],"split_conditions":[1.00440454E3,3.8579898E0,4.456435E-1,5.0479724E2,3.3625108E-1,5.8056874E0,5.9796147E0,1.5115119E0,3.3625108E-1,4.9848343E2,5.128524E2,1.1631774E1,4.084497E0,6.9296618E0,5.782225E-1,6.690959E0,3.148969E0,1.469943E0,1.3354042E2,6E0,6.066662E0,1.2240123E-1,4.418638E-1,4.9810543E0,1.2477749E1,5E0,3.4543878E-1,2.5607747E3,1E0,2.3201573E2,4.8143715E-2,1E0,2E0,5.8056874E0,9.147776E-2,4.680501E0,4.59181E-2,1.408243E2,7.432545E2,1.1118083E1,1.2138625E2,4.5421442E-1,8.3095447E2,7.236184E2,5.514375E-1,3.9973572E-1,1.5377753E2,2.182789E3,1.49604E-1,7.591457E-2,-1.7262755E-2,1.1115281E3,1.2376549E1,1.0669312E3,1.0867362E0,1.3009729E2,1.1869524E1,8.115757E0,7.776913E0,1.3520866E2,1.3404994E2,1.1665849E-2,-1.280475E-1,8.764026E-2,6.569645E-3,4.32145E-3,9.748268E-2,-1.743474E-2,1.0406872E-1,-2.4155064E-1,-1.3024102E-1,1.7282948E-2,-1.801468E-1,8.025393E-2,2.090651E-2,3.025477E-2,1.1316222E-1,-3.566725E-2,6.553893E-2,-8.269626E-2,-1.2542242E-2,5.1652957E-2,-5.586725E-2,2.951239E-3,7.028838E-2,8.2562804E-2,1.13998346E-1,-2.6974863E-1,-1.2399989E-1,-2.2887845E-1,-1.1914015E-1,6.0877185E-2,-1.1899811E-1,1.7185932E-2,-1.948999E-1,-9.47523E-2,-2.3500843E-1,-4.9512185E-2,-1.4188127E-1,5.2067554E-3,-1.14606194E-1,1.8329302E-2,-1.9912319E-1,-9.0668134E-2,7.9271875E-2,4.6256173E-2,-7.914368E-2,-3.509509E-2,-8.520897E-2,-7.059632E-2,3.4736868E-2,-3.176619E-2,-1.522985E-1,-1.1673688E-1,5.210438E-2,8.605253E-2,2.1267898E-2],"split_indices":[3,5,10,3,10,0,0,5,10,3,3,5,5,5,10,0,5,9,1,7,0,0,10,5,5,7,10,3,7,2,9,8,7,0,10,0,0,2,3,3,1,9,3,3,10,10,1,3,0,9,0,3,0,3,0,1,5,5,5,1,2,0,0,0,0,0,0,0,0,0,0,0,0,0,0,0,0,0,0,0,0,0,0,0,0,0,0,0,0,0,0,0,0,0,0,0,0,0,0,0,0,0,0,0,0,0,0,0,0,0,0,0,0,0,0,0,0],"split_type":[0,0,0,0,0,0,0,0,0,0,0,0,0,0,0,0,0,0,0,0,0,0,0,0,0,0,0,0,0,0,0,0,0,0,0,0,0,0,0,0,0,0,0,0,0,0,0,0,0,0,0,0,0,0,0,0,0,0,0,0,0,0,0,0,0,0,0,0,0,0,0,0,0,0,0,0,0,0,0,0,0,0,0,0,0,0,0,0,0,0,0,0,0,0,0,0,0,0,0,0,0,0,0,0,0,0,0,0,0,0,0,0,0,0,0,0,0],"sum_hessian":[1.3628137E3,8.249813E2,5.3783234E2,1.1188458E2,7.1309674E2,2.4023914E2,2.975932E2,6.563539E1,4.6249187E1,1.6148392E2,5.5161285E2,1.7004793E2,7.019121E1,2.1108238E2,8.651083E1,1.5215682E1,5.041971E1,3.7800144E1,8.449044E0,9.44898E1,6.6994125E1,3.4895544E2,2.0265738E2,1.4657051E2,2.347741E1,1.8178186E1,5.2013027E1,1.8488527E1,1.9259386E2,2.2571703E1,6.3939125E1,1.14864435E1,3.7292383E0,3.2965473E1,1.7454237E1,3.612708E1,1.6730659E0,5.779488E0,2.669556E0,9.244618E1,2.0436184E0,4.7835693E1,1.9158428E1,3.5223495E1,1.6743388E2,7.3584335E1,7.298618E1,3.369501E0,2.0107908E1,1.6945503E1,1.2326825E0,3.4349354E1,1.7663673E1,1.4673028E1,3.8154984E0,2.2069988E1,1.7052386E2,1.9280191E1,3.2915125E0,6.4950852E0,5.7444042E1,3.2928982E0,8.193546E0,2.0904007E0,1.6388376E0,2.3621666E1,9.343806E0,1.2329295E0,1.6221308E1,2.435263E1,1.1774448E1,3.5438035E0,2.2356849E0,1.5898751E0,1.0796807E0,2.3618774E0,9.0084305E1,1.0078658E0,1.0357528E0,3.0842785E1,1.6992908E1,1.3539894E1,5.618533E0,1.670401E1,1.8519487E1,3.2367046E1,1.3506685E2,6.949095E1,4.0933795E0,6.455899E1,8.427191E0,2.306755E0,1.0627462E0,1.0359349E0,1.9071974E1,2.6268528E0,1.431865E1,4.065226E0,3.0284126E1,1.2062985E1,5.6006885E0,1.0535828E0,1.3619445E1,2.2525506E0,1.5629476E0,1.3804105E1,8.265883E0,4.686905E1,1.23654816E2,8.075197E0,1.1204993E1,1.0421896E0,2.249323E0,4.418559E0,2.0765262E0,1.5137034E1,4.2307007E1],"tree_param":{"num_deleted":"0","num_feature":"12","num_nodes":"117","size_leaf_vector":"1"}},{"base_weights":[-3.84672E-3,7.3689634E-1,-1.0198193E0,-4.6366405E-1,9.4714206E-1,-1.6669114E0,-4.18895E-1,1.8706492E-1,-1.2705028E0,1.1714749E0,5.7078415E-1,-1.8765894E0,-1.1181515E0,-6.2070775E-1,8.9413255E-2,-8.35926E-1,4.350769E-1,-1.3766116E0,6.3418126E-1,1.1775551E-1,7.824873E-1,-4.0096062E-1,9.1725975E-1,-2.1002722E0,-1.5667603E0,-1.3806136E0,-2.8572765E-1,-1.3554803E0,-5.497181E-1,-6.19018E-1,2.0420529E-1,-1.2668427E0,8.9201845E-2,-5.0223047E-1,5.462885E-1,-4.7353747E-1,-1.5509291E0,1.7042631E-2,7.634993E-2,-3.3956345E-2,1.0575264E-1,-6.976925E-1,1.3974117E-1,5.106901E-1,1.0584083E0,-2.4458286E-3,-2.1242905E0,-1.6287916E0,-1.5203367E-1,-1.5386603E0,-6.482727E-1,-5.477121E-1,7.579616E-1,-1.5955037E0,-2.8004834E-1,-1.9314036E-1,-6.4675945E-1,3.2707953E-1,-8.84968E-1,3.4170213E-1,-3.7830177E-1,-1.2800249E-2,-1.7191325E-1,5.4955512E-2,-1.1627815E-1,7.8070864E-2,9.163862E-3,-8.1763435E-3,-1.6249013E-1,-1.7578478E-1,-9.500182E-2,-1.05760336E-1,-8.304674E-3,9.9755876E-2,-3.6518422E-3,-8.085734E-2,5.8313042E-2,1.8710269E-2,1.0644642E-1,-2.1375024E-1,-7.043504E-2,-2.138121E-1,-1.4394058E-1,-7.852646E-2,5.3560913E-2,-1.4547298E-2,-1.6102146E-1,4.2406917E-2,-1.19176224E-1,2.4850536E-2,-7.969593E-2,1.491218E-2,8.933198E-2,1.7852513E-2,-1.7459315E-1,-7.037582E-2,1.861411E-2,-3.180169E-5,-1.10208906E-1,-7.293779E-2,-2.4412577E-3,-2.7701175E-2,7.2432086E-2,3.0810013E-2,-1.11250125E-1,-6.3477896E-2,4.286502E-2,-7.806773E-2,3.6508296E-2],"categories":[],"categories_nodes":[],"categories_segments":[],"categories_sizes":[],"default_left":[0,0,0,0,0,0,0,0,0,0,0,0,0,0,0,0,0,0,0,0,0,0,0,0,0,0,0,0,0,0,0,0,0,0,0,0,0,0,0,0,0,0,0,0,0,0,0,0,0,0,0,0,0,0,0,0,0,0,0,0,0,0,0,0,0,0,0,0,0,0,0,0,0,0,0,0,0,0,0,0,0,0,0,0,0,0,0,0,0,0,0,0,0,0,0,0,0,0,0,0,0,0,0,0,0,0,0,0,0],"id":3,"left_children":[1,3,5,7,9,11,13,15,17,19,21,23,25,27,29,31,33,35,37,-1,39,41,43,45,47,49,51,53,55,57,59,61,-1,63,65,67,69,-1,-1,-1,-1,71,73,75,77,-1,79,81,83,85,87,89,91,93,95,97,99,101,103,105,107,-1,-1,-1,-1,-1,-1,-1,-1,-1,-1,-1,-1,-1,-1,-1,-1,-1,-1,-1,-1,-1,-1,-1,-1,-1,-1,-1,-1,-1,-1,-1,-1,-1,-1,-1,-1,-1,-1,-1,-1,-1,-1,-1,-1,-1,-1,-1,-1],"loss_changes":[1.02028723E3,1.9834845E2,2.2159369E2,6.1938347E1,5.5692505E1,2.9534851E1,3.0598518E1,1.7089462E1,1.1502441E1,6.555176E-2,8.496122E1,1.0392761E1,1.6751572E1,1.037822E1,7.078654E0,1.0963288E1,5.8738594E0,7.1577377E0,7.738054E-2,0E0,3.2609296E0,1.0804562E1,1.0105789E1,5.518341E0,7.3624268E0,5.878334E0,5.9038897E0,4.2267494E0,6.6622047E0,3.3513465E0,6.0818586E0,5.437275E0,0E0,4.959431E0,5.0974417E0,4.175349E0,3.5004272E0,0E0,0E0,0E0,0E0,9.480902E0,3.7376769E0,5.2251596E0,5.22583E-1,0E0,5.662842E-1,4.9257812E0,2.4869587E0,4.5640106E0,7.6580086E0,3.4976358E0,2.3329353E-1,4.2049713E0,1.0231394E0,7.6037593E0,7.887985E0,1.0166118E0,2.9945984E0,5.4217806E0,4.6723356E0,0E0,0E0,0E0,0E0,0E0,0E0,0E0,0E0,0E0,0E0,0E0,0E0,0E0,0E0,0E0,0E0,0E0,0E0,0E0,0E0,0E0,0E0,0E0,0E0,0E0,0E0,0E0,0E0,0E0,0E0,0E0,0E0,0E0,0E0,0E0,0E0,0E0,0E0,0E0,0E0,0E0,0E0,0E0,0E0,0E0,0E0,0E0,0E0],"parents":[2147483647,0,0,1,1,2,2,3,3,4,4,5,5,6,6,7,7,8,8,9,9,10,10,11,11,12,12,13,13,14,14,15,15,16,16,17,17,18,18,20,20,21,21,22,22,23,23,24,24,25,25,26,26,27,27,28,28,29,29,30,30,31,31,33,33,34,34,35,35,36,36,41,41,42,42,43,43,44,44,46,46,47,47,48,48,49,49,50,50,51,51,52,52,53,53,54,54,55,55,56,56,57,57,58,58,59,59,60,60],"right_children":[2,4,6,8,10,12,14,16,18,20,22,24,26,28,30,32,34,36,38,-1,40,42,44,46,48,50,52,54,56,58,60,62,-1,64,66,68,70,-1,-1,-1,-1,72,74,76,78,-1,80,82,84,86,88,90,92,94,96,98,100,102,104,106,108,-1,-1,-1,-1,-1,-1,-1,-1,-1,-1,-1,-1,-1,-1,-1,-1,-1,-1,-1,-1,-1,-1,-1,-1,-1,-1,-1,-1,-1,-1,-1,-1,-1,-1,-1,-1,-1,-1,-1,-1,-1,-1,-1,-1,-1,-1,-1,-1],"split_conditions":[9.926283E2,3.8579898E0,4.6318406E-1,5.0479724E2,5.128524E2,5.8537345E0,6.066662E0,1.3804603E0,1.469943E0,4.9848343E2,3.5174692E-1,3.074784E-1,1.0572965E1,6.9296618E0,6.6436306E-2,6.690959E0,9.147776E-2,8.854679E-2,1.2818889E2,1.1775551E-1,2.6534212E-1,7.4332535E-1,5.028929E-1,1.034892E-2,8.069538E-1,3.7501162E-1,3.9973572E-1,2.5607747E3,1.3056579E-1,9.429531E0,2.1470792E2,1.4043182E2,8.9201845E-2,2.1010184E0,3.194117E2,8.8597064E2,7.676677E-1,1.7042631E-2,7.634993E-2,-3.3956345E-2,1.0575264E-1,2.6786414E-1,5.513182E0,1.7952766E-2,3.9379273E-2,-2.4458286E-3,2.1792002E0,1.2704333E2,6.4947324E0,6.9253784E-1,1E0,1.1954139E1,7.219885E0,1.0862168E3,4.9967164E-1,6.593318E-1,2.7829168E1,1.4864407E3,1.1374753E2,5.0603616E-1,6.4617515E-1,-1.2800249E-2,-1.7191325E-1,5.4955512E-2,-1.1627815E-1,7.8070864E-2,9.163862E-3,-8.1763435E-3,-1.6249013E-1,-1.7578478E-1,-9.500182E-2,-1.05760336E-1,-8.304674E-3,9.9755876E-2,-3.6518422E-3,-8.085734E-2,5.8313042E-2,1.8710269E-2,1.0644642E-1,-2.1375024E-1,-7.043504E-2,-2.138121E-1,-1.4394058E-1,-7.852646E-2,5.3560913E-2,-1.4547298E-2,-1.6102146E-1,4.2406917E-2,-1.19176224E-1,2.4850536E-2,-7.969593E-2,1.491218E-2,8.933198E-2,1.7852513E-2,-1.7459315E-1,-7.037582E-2,1.861411E-2,-3.180169E-5,-1.10208906E-1,-7.293779E-2,-2.4412577E-3,-2.7701175E-2,7.2432086E-2,3.0810013E-2,-1.11250125E-1,-6.3477896E-2,4.286502E-2,-7.806773E-2,3.6508296E-2],"split_indices":[3,5,10,3,3,0,0,5,9,3,10,10,5,5,9,0,10,9,2,0,10,11,10,9,11,10,10,3,9,5,2,2,0,5,3,3,11,0,0,0,0,10,0,9,0,0,9,2,5,11,8,5,0,3,10,11,5,3,2,10,9,0,0,0,0,0,0,0,0,0,0,0,0,0,0,0,0,0,0,0,0,0,0,0,0,0,0,0,0,0,0,0,0,0,0,0,0,0,0,0,0,0,0,0,0,0,0,0,0],"split_type":[0,0,0,0,0,0,0,0,0,0,0,0,0,0,0,0,0,0,0,0,0,0,0,0,0,0,0,0,0,0,0,0,0,0,0,0,0,0,0,0,0,0,0,0,0,0,0,0,0,0,0,0,0,0,0,0,0,0,0,0,0,0,0,0,0,0,0,0,0,0,0,0,0,0,0,0,0,0,0,0,0,0,0,0,0,0,0,0,0,0,0,0,0,0,0,0,0,0,0,0,0,0,0,0,0,0,0,0,0],"sum_hessian":[1.3537303E3,7.8307043E2,5.7066E2,1.1651764E2,6.665528E2,2.7392065E2,2.9673932E2,6.492372E1,5.1593914E1,4.1629953E2,2.5025323E2,1.964417E2,7.747895E1,2.1224924E2,8.449008E1,1.2206068E1,5.2717655E1,4.9133945E1,2.4599698E0,4.0789655E2,8.40298E0,6.57342E1,1.8451903E2,1.1072466E2,8.5717026E1,5.8405304E1,1.907365E1,1.710556E1,1.9514368E2,1.1168977E1,7.33211E1,9.983276E0,2.2227912E0,5.218594E0,4.749906E1,8.550987E0,4.058296E1,1.0417986E0,1.4181712E0,1.608074E0,6.794906E0,4.2254818E1,2.347938E1,4.8741177E1,1.3577786E2,1.2895734E0,1.0943509E2,8.197153E1,3.7454987E0,4.7132587E1,1.12727165E1,1.5626371E1,3.44728E0,1.3589055E1,3.516505E0,4.2386204E1,1.5275748E2,2.400285E0,8.768692E0,5.9653652E1,1.3667447E1,3.2025204E0,6.7807565E0,2.0779464E0,3.1406474E0,3.0866795E1,1.6632267E1,7.1791544E0,1.3718333E0,2.875582E1,1.1827139E1,2.6195282E1,1.6059538E1,3.207852E0,2.0271528E1,2.0081081E0,4.673307E1,1.1573606E0,1.346205E2,1.0792553E2,1.5095562E0,1.9429237E1,6.254229E1,1.8759881E0,1.8695107E0,2.4506419E0,4.4681946E1,3.865517E0,7.4072E0,3.7261631E0,1.19002075E1,1.0092711E0,2.4380088E0,1.0476071E0,1.2541448E1,1.5752217E0,1.9412833E0,3.579342E1,6.5927854E0,1.3470323E2,1.8054241E1,1.0722929E0,1.327992E0,1.3477409E0,7.4209514E0,4.3622427E0,5.5291412E1,8.835076E0,4.8323708E0],"tree_param":{"num_deleted":"0","num_feature":"12","num_nodes":"109","size_leaf_vector":"1"}},{"base_weights":[2.5878355E-2,7.5470215E-1,-8.802274E-1,-3.495937E-1,9.5315236E-1,7.694541E-1,-1.502048E0,1.0412446E0,-9.2445195E-1,5.0792295E-1,1.0923946E0,-1.2861203E0,1.017606E0,-2.0338523E0,-9.4908804E-1,1.23264395E-1,5.4416096E-1,-1.39946E-1,-1.80049E0,1.0320885E0,-1.7529371E-1,1.1774911E-1,9.4533235E-1,-1.6334014E0,6.872432E-2,2.289774E-1,1.2111595E0,-2.1551833E0,-1.496598E0,-5.6100535E-1,-1.4057552E0,-6.569313E-1,1.06395E0,-5.4803395E-1,7.515987E-1,-2.3045006E-1,-1.1163802E0,2.1752656E-1,1.0603529E0,1.2308697E-1,-7.8061455E-1,5.6296295E-1,1.089846E0,-1.8177067E-1,-6.1855537E-1,-1.6916859E-1,1.1020001E0,4.525982E-1,1.2237024E-1,-2.1710531E-1,-4.447682E-2,-7.7356815E-1,-2.2723475E0,-1.0752993E0,8.226651E-1,-1.4739519E0,-4.129941E-1,-1.2211867E-1,3.347388E-2,1.1577963E-1,2.5939897E-2,-9.245421E-2,7.167001E-2,-1.3877687E-2,8.459218E-2,-3.0074438E-2,-1.6686027E-1,7.323546E-2,-3.228605E-2,1.0962923E-1,6.413498E-2,-1.0980018E-1,-1.3940646E-2,1.1650572E-1,2.2436116E-2,1.0490773E-2,1.0967026E-1,8.259126E-3,-1.03390574E-1,3.3536613E-2,-8.5872225E-2,2.5077218E-2,1.1875607E-1,-2.1132698E-2,8.322615E-2,-1.2101674E-1,8.1971055E-3,-2.3621507E-1,-2.7878318E-2,-1.4531216E-1,-7.915226E-2,-2.4610735E-3,8.651568E-2,1.7373381E-2,-1.5104908E-1,3.3262376E-2,-1.0683341E-1],"categories":[],"categories_nodes":[],"categories_segments":[],"categories_sizes":[],"default_left":[0,0,0,0,0,0,0,0,0,0,0,0,0,0,0,0,0,0,0,0,0,0,0,0,0,0,0,0,0,0,0,0,0,0,0,0,0,0,0,0,0,0,0,0,0,0,0,0,0,0,0,0,0,0,0,0,0,0,0,0,0,0,0,0,0,0,0,0,0,0,0,0,0,0,0,0,0,0,0,0,0,0,0,0,0,0,0,0,0,0,0,0,0,0,0,0,0],"id":4,"left_children":[1,3,5,7,9,11,13,15,17,19,21,23,25,27,29,-1,31,33,35,37,39,-1,41,43,-1,45,47,49,51,53,55,57,59,61,63,-1,65,67,69,-1,71,73,75,-1,77,79,81,83,-1,-1,-1,85,87,89,91,93,95,-1,-1,-1,-1,-1,-1,-1,-1,-1,-1,-1,-1,-1,-1,-1,-1,-1,-1,-1,-1,-1,-1,-1,-1,-1,-1,-1,-1,-1,-1,-1,-1,-1,-1,-1,-1,-1,-1,-1,-1],"loss_changes":[8.81202E2,1.6239474E2,6.113562E2,9.161586E1,3.8323547E1,8.470951E1,1.2520911E2,2.5287094E0,5.5246826E1,5.4354538E1,4.854431E0,1.349489E1,2.2076584E1,1.1083862E1,3.7107895E1,0E0,7.653269E0,1.6306469E1,1.0552795E1,1.7434769E0,5.7587692E1,0E0,9.3250885E0,1.8024826E0,0E0,1.0646346E1,5.627594E-1,3.833496E0,2.2760788E1,8.432933E1,5.997238E0,2.637383E0,3.1550407E-1,1.5208795E1,1.304872E0,0E0,7.645239E0,1.3864392E0,5.409088E-1,0E0,9.436207E0,1.0217623E1,7.592163E-1,0E0,1.2272353E0,7.779809E0,3.9835167E-1,1.0570756E0,0E0,0E0,0E0,9.116841E0,3.024414E0,8.061951E0,1.1856384E0,5.735672E0,4.098803E0,0E0,0E0,0E0,0E0,0E0,0E0,0E0,0E0,0E0,0E0,0E0,0E0,0E0,0E0,0E0,0E0,0E0,0E0,0E0,0E0,0E0,0E0,0E0,0E0,0E0,0E0,0E0,0E0,0E0,0E0,0E0,0E0,0E0,0E0,0E0,0E0,0E0,0E0,0E0,0E0],"parents":[2147483647,0,0,1,1,2,2,3,3,4,4,5,5,6,6,7,7,8,8,9,9,10,10,11,11,12,12,13,13,14,14,16,16,17,17,18,18,19,19,20,20,22,22,23,23,25,25,26,26,27,27,28,28,29,29,30,30,31,31,32,32,33,33,34,34,36,36,37,37,38,38,40,40,41,41,42,42,44,44,45,45,46,46,47,47,51,51,52,52,53,53,54,54,55,55,56,56],"right_children":[2,4,6,8,10,12,14,16,18,20,22,24,26,28,30,-1,32,34,36,38,40,-1,42,44,-1,46,48,50,52,54,56,58,60,62,64,-1,66,68,70,-1,72,74,76,-1,78,80,82,84,-1,-1,-1,86,88,90,92,94,96,-1,-1,-1,-1,-1,-1,-1,-1,-1,-1,-1,-1,-1,-1,-1,-1,-1,-1,-1,-1,-1,-1,-1,-1,-1,-1,-1,-1,-1,-1,-1,-1,-1,-1,-1,-1,-1,-1,-1,-1],"split_conditions":[9.926283E2,3.778008E0,1.4957606E1,1.4957606E1,3.3625108E-1,3.3278422E0,4.8137394E-1,5.9148694E2,4.9848343E2,4.9848343E2,5.200047E2,6.261081E0,3.0514362E-1,7.949087E0,2.4974623E1,1.23264395E-1,1.8248676E0,2.8669145E0,2.6993458E0,1.1118083E1,1.5061124E1,1.1774911E-1,5.028929E-1,2.7645261E0,6.872432E-2,6.117142E0,3.9226074E0,3.4633646E2,2.4974623E1,5.9796147E0,3.1181192E1,1.7395958E2,1.1364123E0,6.690959E0,9.147776E-2,-2.3045006E-1,7.3047314E2,2.100809E1,3.29294E1,1.2308697E-1,7.4332535E-1,1.52042465E1,3.9379273E-2,-1.8177067E-1,4.595278E-1,3.8677216E-1,1.12699874E-1,1.4996984E3,1.2237024E-1,-2.1710531E-1,-4.447682E-2,3.1940314E-1,4.5754758E-1,1.4075638E1,5.0603616E-1,5.8146107E1,3.2755861E0,-1.2211867E-1,3.347388E-2,1.1577963E-1,2.5939897E-2,-9.245421E-2,7.167001E-2,-1.3877687E-2,8.459218E-2,-3.0074438E-2,-1.6686027E-1,7.323546E-2,-3.228605E-2,1.0962923E-1,6.413498E-2,-1.0980018E-1,-1.3940646E-2,1.1650572E-1,2.2436116E-2,1.0490773E-2,1.0967026E-1,8.259126E-3,-1.03390574E-1,3.3536613E-2,-8.5872225E-2,2.5077218E-2,1.1875607E-1,-2.1132698E-2,8.322615E-2,-1.2101674E-1,8.1971055E-3,-2.3621507E-1,-2.7878318E-2,-1.4531216E-1,-7.915226E-2,-2.4610735E-3,8.651568E-2,1.7373381E-2,-1.5104908E-1,3.3262376E-2,-1.0683341E-1],"split_indices":[3,5,6,6,10,5,10,3,3,3,3,0,10,0,6,0,0,5,5,3,6,0,10,5,0,0,5,2,6,0,5,2,9,0,10,0,3,6,6,0,11,6,0,0,11,9,10,3,0,0,0,10,10,5,10,1,0,0,0,0,0,0,0,0,0,0,0,0,0,0,0,0,0,0,0,0,0,0,0,0,0,0,0,0,0,0,0,0,0,0,0,0,0,0,0,0,0],"split_type":[0,0,0,0,0,0,0,0,0,0,0,0,0,0,0,0,0,0,0,0,0,0,0,0,0,0,0,0,0,0,0,0,0,0,0,0,0,0,0,0,0,0,0,0,0,0,0,0,0,0,0,0,0,0,0,0,0,0,0,0,0,0,0,0,0,0,0,0,0,0,0,0,0,0,0,0,0,0,0,0,0,0,0,0,0,0,0,0,0,0,0,0,0,0,0,0,0],"sum_hessian":[1.3323574E3,7.3850775E2,5.938497E2,1.1238252E2,6.261252E2,1.6250055E2,4.3134912E2,3.2628452E1,7.9754074E1,1.5027283E2,4.758524E2,1.7053608E1,1.4544695E2,2.1851562E2,2.128335E2,2.2489313E1,1.0139138E1,4.2686966E1,3.706711E1,8.474535E1,6.552748E1,2.969928E2,1.7885959E2,1.4648056E1,2.405553E0,2.909266E1,1.1635429E2,1.7580188E2,4.2713737E1,1.1626133E2,9.657217E1,2.9828153E0,7.156323E0,2.9547464E1,1.3139502E1,1.9979105E1,1.7088001E1,3.1335883E0,8.161176E1,1.9408356E1,4.6119125E1,5.040043E1,1.2845915E2,1.1727179E1,2.9208772E0,2.053418E1,8.55848E0,2.4958673E0,1.1385841E2,1.7391888E2,1.8829961E0,2.3141819E1,1.9571918E1,8.492032E1,3.1341011E1,8.99111E1,6.6610622E0,1.7535878E0,1.2292274E0,6.0155816E0,1.1407416E0,2.2976423E1,6.571041E0,1.2134719E0,1.1926029E1,7.522231E0,9.565769E0,1.4228218E0,1.7107664E0,7.36759E1,7.9358644E0,3.0372734E1,1.5746392E1,1.7262985E1,3.3137444E1,1.0007663E0,1.2745839E2,1.3846402E0,1.5362371E0,1.215455E1,8.379631E0,1.1407068E0,7.4177737E0,1.0693157E0,1.4265516E0,1.5048005E1,8.093814E0,1.8551357E1,1.0205622E0,3.465704E1,5.0263275E1,1.5168153E0,2.9824196E1,1.8691385E0,8.804196E1,3.3462656E0,3.3147964E0],"tree_param":{"num_deleted":"0","num_feature":"12","num_nodes":"97","size_leaf_vector":"1"}},{"base_weights":[9.869425E-3,1.0035032E0,-3.8057107E-1,1.8724701E-1,1.1100756E0,-1.1355278E0,5.717878E-2,-1.2988892E-1,1.0757018E0,6.599655E-1,1.1553271E0,-1.3999248E0,-9.146633E-1,-4.108387E-1,1.6363822E-1,-6.913176E-1,1.3345273E-1,2.0292241E-2,1.1453344E-1,9.655197E-1,2.7131414E-1,8.619409E-1,1.17731564E-1,-1.4296229E0,1.8447451E-1,-7.3038524E-1,-1.1626885E0,-5.755097E-1,6.2520795E-2,3.5632116E-1,-6.28867E-2,4.826871E-2,-9.5561445E-1,-2.5539932E-1,6.341943E-1,3.060976E-1,1.2037188E-1,-3.8695243E-1,8.408145E-1,9.543242E-1,-1.15109915E-2,-1.2014011E0,-1.6479353E0,7.790047E-2,-6.280289E-2,-9.54384E-1,-1.8722777E-1,-1.443223E0,-8.5862017E-1,-7.8092986E-1,-2.7195323E-1,3.5568458E-1,-7.562339E-1,1.4222622E-1,8.3485234E-1,1.7720884E-1,-1.4888233E-1,-1.3902532E-1,-3.2134216E-2,7.591957E-2,-5.8150005E-2,1.1749107E-1,-3.1270646E-2,-6.703399E-2,6.527525E-2,7.0548154E-2,-6.802534E-2,-5.307536E-3,1.108292E-1,4.1154064E-2,1.0724199E-1,-1.430752E-1,-6.952579E-2,-1.7058598E-1,-7.436485E-2,-1.0241862E-1,-3.5888307E-2,-4.246498E-2,7.7476904E-2,-1.4871335E-1,-7.1959044E-3,-9.122684E-2,3.6680404E-2,-1.9128432E-2,-9.243012E-2,5.3674985E-2,-4.1070018E-2,5.1502313E-2,-5.2225273E-2,-2.0986933E-2,-1.5304473E-1,-6.701676E-2,1.823478E-2,1.1992612E-2,8.855068E-2,-6.8045803E-3,4.6290588E-2,-5.3236116E-2,-8.4073525E-3],"categories":[],"categories_nodes":[],"categories_segments":[],"categories_sizes":[],"default_left":[0,0,0,0,0,0,0,0,0,0,0,0,0,0,0,0,0,0,0,0,0,0,0,0,0,0,0,0,0,0,0,0,0,0,0,0,0,0,0,0,0,0,0,0,0,0,0,0,0,0,0,0,0,0,0,0,0,0,0,0,0,0,0,0,0,0,0,0,0,0,0,0,0,0,0,0,0,0,0,0,0,0,0,0,0,0,0,0,0,0,0,0,0,0,0,0,0,0,0],"id":5,"left_children":[1,3,5,7,9,11,13,15,17,19,21,23,25,27,29,31,33,-1,-1,35,37,39,-1,41,43,45,47,49,51,53,55,-1,57,59,61,63,-1,65,67,69,-1,71,73,-1,-1,75,77,79,81,83,85,87,89,91,93,95,97,-1,-1,-1,-1,-1,-1,-1,-1,-1,-1,-1,-1,-1,-1,-1,-1,-1,-1,-1,-1,-1,-1,-1,-1,-1,-1,-1,-1,-1,-1,-1,-1,-1,-1,-1,-1,-1,-1,-1,-1,-1,-1],"loss_changes":[5.0548587E2,3.1765747E1,3.0920218E2,1.2438468E1,5.8552246E0,1.877066E1,2.961575E1,4.980043E0,4.7195053E-1,3.5396404E0,8.811035E-1,7.5286255E0,7.833435E0,8.624804E0,2.1141764E1,3.7867312E0,4.7070317E0,0E0,0E0,2.385254E0,6.1289415E0,2.29636E0,0E0,5.5769043E0,2.289339E0,1.3409096E1,5.5242767E0,4.8912354E0,7.311471E0,2.6683655E1,4.635868E0,0E0,2.0574255E0,5.0245275E0,5.738455E0,2.4662E0,0E0,3.0001798E0,2.1187086E0,9.841728E-1,0E0,8.04155E0,2.6509094E0,0E0,0E0,2.9090576E0,8.061038E0,2.2877426E0,2.998289E0,3.904604E0,4.0990057E0,3.3863416E0,3.0863395E0,6.0528145E0,2.8148575E0,4.1887574E0,4.053939E0,0E0,0E0,0E0,0E0,0E0,0E0,0E0,0E0,0E0,0E0,0E0,0E0,0E0,0E0,0E0,0E0,0E0,0E0,0E0,0E0,0E0,0E0,0E0,0E0,0E0,0E0,0E0,0E0,0E0,0E0,0E0,0E0,0E0,0E0,0E0,0E0,0E0,0E0,0E0,0E0,0E0,0E0],"parents":[2147483647,0,0,1,1,2,2,3,3,4,4,5,5,6,6,7,7,8,8,9,9,10,10,11,11,12,12,13,13,14,14,15,15,16,16,19,19,20,20,21,21,23,23,24,24,25,25,26,26,27,27,28,28,29,29,30,30,32,32,33,33,34,34,35,35,37,37,38,38,39,39,41,41,42,42,45,45,46,46,47,47,48,48,49,49,50,50,51,51,52,52,53,53,54,54,55,55,56,56],"right_children":[2,4,6,8,10,12,14,16,18,20,22,24,26,28,30,32,34,-1,-1,36,38,40,-1,42,44,46,48,50,52,54,56,-1,58,60,62,64,-1,66,68,70,-1,72,74,-1,-1,76,78,80,82,84,86,88,90,92,94,96,98,-1,-1,-1,-1,-1,-1,-1,-1,-1,-1,-1,-1,-1,-1,-1,-1,-1,-1,-1,-1,-1,-1,-1,-1,-1,-1,-1,-1,-1,-1,-1,-1,-1,-1,-1,-1,-1,-1,-1,-1,-1,-1],"split_conditions":[1.4957606E1,3.148969E0,2.9657977E0,8.255905E-1,1.0950459E0,4.3498955E0,4.4015517E0,1.344104E2,3.4684397E-2,4.1876298E-1,2.4416041E-1,4.368808E-1,2.5442192E1,8.9984494E-1,2.4974623E1,9.634666E1,1.0950459E0,2.0292241E-2,1.1453344E-1,1E0,5.07486E-1,2.3550728E-1,1.17731564E-1,2.4872303E1,1.6488081E2,8.296028E-1,1.6036127E0,7.714491E0,2.8063251E1,7.8619725E-1,1.3366168E2,4.826871E-2,8.23452E0,8.759348E-2,1.3459569E2,4.4822793E0,1.2037188E-1,1.3431326E-1,4.4822793E0,2.8469488E-1,-1.15109915E-2,7.2221905E-1,3.9693405E1,7.790047E-2,-6.280289E-2,2.617021E0,1.4698954E1,2.9230136E2,1.7441425E1,9.7210655E1,2.0372058E-1,1.4513272E1,4.9400762E-1,9.674086E-2,9.771595E1,5.922938E-1,5.500412E0,-1.3902532E-1,-3.2134216E-2,7.591957E-2,-5.8150005E-2,1.1749107E-1,-3.1270646E-2,-6.703399E-2,6.527525E-2,7.0548154E-2,-6.802534E-2,-5.307536E-3,1.108292E-1,4.1154064E-2,1.0724199E-1,-1.430752E-1,-6.952579E-2,-1.7058598E-1,-7.436485E-2,-1.0241862E-1,-3.5888307E-2,-4.246498E-2,7.7476904E-2,-1.4871335E-1,-7.1959044E-3,-9.122684E-2,3.6680404E-2,-1.9128432E-2,-9.243012E-2,5.3674985E-2,-4.1070018E-2,5.1502313E-2,-5.2225273E-2,-2.0986933E-2,-1.5304473E-1,-6.701676E-2,1.823478E-2,1.1992612E-2,8.855068E-2,-6.8045803E-3,4.6290588E-2,-5.3236116E-2,-8.4073525E-3],"split_indices":[6,5,4,11,4,5,4,2,9,9,10,10,6,11,6,2,4,0,0,8,11,10,0,6,2,11,4,5,6,11,2,0,6,10,1,5,0,4,5,11,0,11,6,0,0,4,5,2,5,1,11,5,10,11,2,11,4,0,0,0,0,0,0,0,0,0,0,0,0,0,0,0,0,0,0,0,0,0,0,0,0,0,0,0,0,0,0,0,0,0,0,0,0,0,0,0,0,0,0],"split_type":[0,0,0,0,0,0,0,0,0,0,0,0,0,0,0,0,0,0,0,0,0,0,0,0,0,0,0,0,0,0,0,0,0,0,0,0,0,0,0,0,0,0,0,0,0,0,0,0,0,0,0,0,0,0,0,0,0,0,0,0,0,0,0,0,0,0,0,0,0,0,0,0,0,0,0,0,0,0,0,0,0,0,0,0,0,0,0,0,0,0,0,0,0,0,0,0,0,0,0],"sum_hessian":[1.3009658E3,3.6655307E2,9.344128E2,4.2649574E1,3.239035E2,3.4236523E2,5.9204755E2,3.2059624E1,1.058995E1,3.101238E1,2.928911E2,1.533962E2,1.8896904E2,1.09185715E2,4.8286182E2,9.717442E0,2.2342182E1,1.071676E0,9.518274E0,1.653132E1,1.4481058E1,2.322372E1,2.6966742E2,1.5066972E2,2.7264729E0,1.1068039E2,7.828866E1,8.084557E1,2.8340137E1,2.606116E2,2.222502E2,1.633801E0,8.08364E0,1.2851938E1,9.490243E0,4.9932437E0,1.1538078E1,6.8657293E0,7.615329E0,2.1238785E1,1.9849341E0,7.6842445E1,7.382727E1,1.5982327E0,1.1282401E0,7.782724E1,3.285315E1,3.877153E1,3.9517128E1,4.727884E1,3.356673E1,2.1284555E1,7.055582E0,1.8095122E2,7.96604E1,5.8331333E1,1.6391887E2,4.089441E0,3.9941993E0,2.8029714E0,1.0048966E1,5.8874755E0,3.602768E0,1.0636048E0,3.9296389E0,1.1557367E0,5.709993E0,1.9385176E0,5.676811E0,4.596674E0,1.664211E1,5.1623363E1,2.5219084E1,6.8549866E1,5.277407E0,6.901744E1,8.809802E0,2.6797955E1,6.055194E0,3.748664E1,1.2848904E0,3.810449E1,1.4126378E0,9.703852E0,3.757499E1,4.4955177E0,2.9071215E1,1.8364855E1,2.9197013E0,4.881657E0,2.1739247E0,7.7769876E0,1.7317422E2,5.4935284E0,7.416688E1,3.179713E1,2.6534203E1,2.2654728E1,1.4126414E2],"tree_param":{"num_deleted":"0","num_feature":"12","num_nodes":"99","size_leaf_vector":"1"}},{"base_weights":[1.0237626E-2,6.9884574E-1,-7.974089E-1,6.1212033E-2,1.019233E0,7.2404504E-1,-1.2949827E0,1.1262791E0,-3.387644E-1,1.15258574E-1,7.946612E-1,-4.085364E-1,1.0657938E0,-1.8158598E0,-9.0006006E-1,5.178017E-1,1.148019E-1,3.7152463E-1,-1.1673713E0,2.065617E-1,9.4906294E-1,-8.928371E-1,1.14802316E-1,3.3862957E-1,1.1512878E0,-1.8681241E0,-1.2281424E0,-6.002272E-1,-1.223435E0,8.501122E-2,-2.210979E-2,-2.512561E-1,7.758691E-1,-1.4414228E0,-3.7121478E-1,9.966883E-1,-4.353326E-1,1.1347484E-1,8.406238E-1,-1.3348621E0,-3.035542E-1,6.696006E-2,9.6440576E-2,5.9473443E-1,1.1728683E0,-4.0759165E-2,-1.8799916E-1,-4.0993872E-1,-1.9549033E-1,-1.0330188E0,7.16179E-1,-9.406983E-1,-1.5176085E0,-5.1119246E-2,6.116447E-2,4.1369937E-2,9.2334926E-2,-1.5006861E-1,8.1959195E-2,-8.28331E-2,4.722668E-2,1.7368011E-2,1.0950326E-1,-1.3853183E-1,-9.535588E-3,3.835854E-2,9.120249E-2,2.208483E-2,-1.516209E-1,-6.1773647E-2,4.6903953E-2,5.1360127E-2,-9.375819E-2,-3.8415592E-2,1.04458116E-1,2.2505265E-2,1.1808127E-1,-7.431808E-2,8.864827E-2,-1.7197406E-1,-9.037504E-2,8.170336E-2,-4.799755E-3,-9.9570245E-2,4.2767845E-2,-1.7107569E-1,-1.0588727E-1],"categories":[],"categories_nodes":[],"categories_segments":[],"categories_sizes":[],"default_left":[0,0,0,0,0,0,0,0,0,0,0,0,0,0,0,0,0,0,0,0,0,0,0,0,0,0,0,0,0,0,0,0,0,0,0,0,0,0,0,0,0,0,0,0,0,0,0,0,0,0,0,0,0,0,0,0,0,0,0,0,0,0,0,0,0,0,0,0,0,0,0,0,0,0,0,0,0,0,0,0,0,0,0,0,0,0,0],"id":6,"left_children":[1,3,5,7,9,11,13,15,17,-1,19,21,23,25,27,29,-1,31,33,35,37,39,-1,41,43,45,47,49,51,-1,-1,53,55,57,59,61,63,-1,65,67,69,71,-1,73,75,-1,-1,77,-1,79,81,83,85,-1,-1,-1,-1,-1,-1,-1,-1,-1,-1,-1,-1,-1,-1,-1,-1,-1,-1,-1,-1,-1,-1,-1,-1,-1,-1,-1,-1,-1,-1,-1,-1,-1,-1],"loss_changes":[7.138425E2,1.4147339E2,4.4813202E2,9.9537994E1,1.2891541E1,5.703077E1,9.0007324E1,2.492218E-1,1.0047708E2,0E0,1.5694382E1,2.7120333E1,6.610466E0,3.576538E0,2.4025726E1,1.1754606E0,0E0,2.3433825E1,1.6635918E1,1.9538591E1,1.8314362E0,6.6184196E0,0E0,2.1901665E0,5.075989E-1,2.2427979E0,1.0215939E1,7.735158E1,8.711044E0,0E0,0E0,8.630728E0,2.6198044E0,9.028297E0,8.680682E0,1.2010384E0,6.8053336E0,0E0,2.6258774E0,4.5985584E0,3.4092402E0,5.1129875E0,0E0,2.9439392E0,4.5387268E-1,0E0,0E0,4.970795E0,0E0,7.4657516E0,2.6489563E0,5.302166E0,3.3372803E0,0E0,0E0,0E0,0E0,0E0,0E0,0E0,0E0,0E0,0E0,0E0,0E0,0E0,0E0,0E0,0E0,0E0,0E0,0E0,0E0,0E0,0E0,0E0,0E0,0E0,0E0,0E0,0E0,0E0,0E0,0E0,0E0,0E0,0E0],"parents":[2147483647,0,0,1,1,2,2,3,3,4,4,5,5,6,6,7,7,8,8,10,10,11,11,12,12,13,13,14,14,15,15,17,17,18,18,19,19,20,20,21,21,23,23,24,24,25,25,26,26,27,27,28,28,31,31,32,32,33,33,34,34,35,35,36,36,38,38,39,39,40,40,41,41,43,43,44,44,47,47,49,49,50,50,51,51,52,52],"right_children":[2,4,6,8,10,12,14,16,18,-1,20,22,24,26,28,30,-1,32,34,36,38,40,-1,42,44,46,48,50,52,-1,-1,54,56,58,60,62,64,-1,66,68,70,72,-1,74,76,-1,-1,78,-1,80,82,84,86,-1,-1,-1,-1,-1,-1,-1,-1,-1,-1,-1,-1,-1,-1,-1,-1,-1,-1,-1,-1,-1,-1,-1,-1,-1,-1,-1,-1,-1,-1,-1,-1,-1,-1],"split_conditions":[9.926283E2,2.4473276E0,1.4957606E1,1.5061124E1,5.200047E2,1.5626664E0,3.7638452E0,8.884448E-1,4.9848343E2,1.15258574E-1,3.8164601E0,6.261081E0,2.9540315E-1,1.1885753E1,2.4974623E1,2.3847972E-1,1.148019E-1,3.148969E0,1.7327831E0,1.8999857E1,1.6101702E1,4.4179287E0,1.14802316E-1,5.5715413E0,2.3270106E0,1.00440454E3,2.4872303E1,5.9796147E0,5.585985E-1,8.501122E-2,-2.210979E-2,6.117142E0,3.786855E-1,4.0398563E1,7.808697E-1,6.8217903E-1,1.5959785E0,1.1347484E-1,1.849535E1,2.0372058E-1,2.3595264E3,3.8863611E0,9.6440576E-2,1E0,3.4784698E0,-4.0759165E-2,-1.8799916E-1,1.4698954E1,-1.9549033E-1,4.9225993E0,1.6505543E1,4.4889727E0,2.093694E3,-5.1119246E-2,6.116447E-2,4.1369937E-2,9.2334926E-2,-1.5006861E-1,8.1959195E-2,-8.28331E-2,4.722668E-2,1.7368011E-2,1.0950326E-1,-1.3853183E-1,-9.535588E-3,3.835854E-2,9.120249E-2,2.208483E-2,-1.516209E-1,-6.1773647E-2,4.6903953E-2,5.1360127E-2,-9.375819E-2,-3.8415592E-2,1.04458116E-1,2.2505265E-2,1.1808127E-1,-7.431808E-2,8.864827E-2,-1.7197406E-1,-9.037504E-2,8.170336E-2,-4.799755E-3,-9.9570245E-2,4.2767845E-2,-1.7107569E-1,-1.0588727E-1],"split_indices":[3,4,6,6,3,4,4,5,3,0,4,0,10,0,6,10,0,5,4,6,6,5,0,0,4,3,6,0,11,0,0,0,11,6,11,0,0,0,6,11,3,0,0,8,5,0,0,5,0,4,0,0,3,0,0,0,0,0,0,0,0,0,0,0,0,0,0,0,0,0,0,0,0,0,0,0,0,0,0,0,0,0,0,0,0,0,0],"split_type":[0,0,0,0,0,0,0,0,0,0,0,0,0,0,0,0,0,0,0,0,0,0,0,0,0,0,0,0,0,0,0,0,0,0,0,0,0,0,0,0,0,0,0,0,0,0,0,0,0,0,0,0,0,0,0,0,0,0,0,0,0,0,0,0,0,0,0,0,0,0,0,0,0,0,0,0,0,0,0,0,0,0,0,0,0,0,0],"sum_hessian":[1.2815367E3,6.9181903E2,5.897177E2,2.3176067E2,4.6005838E2,1.4521922E2,4.4449847E2,6.2778E1,1.6898268E2,2.860606E2,1.7399776E2,3.361641E1,1.11602806E2,1.9013062E2,2.5436786E2,3.021692E0,5.9756306E1,9.128446E1,7.769821E1,3.6668644E1,1.3732912E2,2.5964378E1,7.652033E0,1.2262856E1,9.933995E1,1.7260284E2,1.7527773E1,1.3347038E2,1.2089748E2,1.980484E0,1.0412079E0,3.6084652E1,5.5199814E1,5.719885E1,2.0499361E1,1.618873E1,2.0479914E1,4.7141758E1,9.0187355E1,1.4112938E1,1.1851439E1,9.322613E0,2.940242E0,4.774166E0,9.456579E1,1.6760368E0,1.709268E2,8.980918E0,8.546854E0,1.00608765E2,3.2861626E1,6.378758E1,5.7109894E1,2.8044302E1,8.04035E0,1.707458E1,3.8125233E1,5.6065598E1,1.1332521E0,1.3306178E1,7.193184E0,2.0232136E0,1.4165516E1,4.587229E0,1.5892686E1,1.3046834E1,7.7140526E1,1.4506339E0,1.2662305E1,8.567732E0,3.2837079E0,6.7916284E0,2.5309846E0,1.5491539E0,3.225012E0,1.0298406E0,9.353594E1,7.4839344E0,1.4969834E0,1.3989217E1,8.6619545E1,2.8969162E1,3.8924615E0,6.1584442E1,2.203139E0,3.8268047E1,1.8841846E1],"tree_param":{"num_deleted":"0","num_feature":"12","num_nodes":"87","size_leaf_vector":"1"}},{"base_weights":[1.4180136E-2,6.6801226E-1,-7.1582466E-1,5.364612E-2,1.0178066E0,-1.1799674E0,-2.8378972E-1,5.8940643E-1,-5.832594E-1,1.1398923E-1,8.323614E-1,-1.3180012E0,-8.530298E-1,-5.8412915E-1,-9.019161E-2,1.6279219E-2,9.130335E-1,-8.9747196E-1,-2.2068448E-1,4.5034656E-1,9.7245204E-1,-1.4813855E0,-1.1754103E0,-1.0739418E0,-5.3831226E-1,8.857667E-2,-6.130903E-1,-1.5430011E-1,2.1297593E-1,-1.8790479E-1,8.107488E-1,6.6512215E-1,1.0541154E0,-1.2351516E0,-4.9508578E-1,6.0663454E-2,-5.4781157E-1,-8.209666E-1,5.52531E-1,5.534384E-1,1.0010791E0,-1.5011554E0,-4.7761362E-2,-1.2079397E0,-2.19643E-2,-1.1939714E0,2.2843932E-1,-8.508928E-1,-1.279369E-1,-4.584646E-1,-8.6604446E-1,-2.6003915E-1,1.325552E-1,7.877441E-1,-6.1967786E-2,-7.8745514E-2,6.303618E-3,9.7186044E-2,-7.060066E-3,7.318661E-2,-3.5826933E-2,1.0704936E-1,2.0964367E-2,-1.2942532E-1,6.4127664E-3,-7.854485E-2,2.4723668E-2,-2.91527E-2,4.1326392E-2,5.027203E-2,-8.838575E-2,2.3966111E-2,-1.3476942E-1,3.3828035E-2,1.04218476E-1,1.0230908E-2,9.4058484E-2,2.5526632E-2,1.0151931E-1,-1.511091E-1,-4.106101E-2,-8.273699E-2,-1.2850054E-1,7.667657E-2,-6.7275606E-2,-1.2575561E-1,-6.375026E-2,8.4138446E-2,-2.875177E-2,-4.914124E-2,-1.6159841E-1,9.728245E-2,-3.735131E-2,-6.654572E-2,-8.403776E-3,6.895527E-4,-9.532544E-2,-1.6929021E-2,-6.259123E-2,-3.7575584E-2,3.3104908E-2,9.974166E-2,1.1929466E-2,-2.7152855E-2,7.9647414E-2],"categories":[],"categories_nodes":[],"categories_segments":[],"categories_sizes":[],"default_left":[0,0,0,0,0,0,0,0,0,0,0,0,0,0,0,0,0,0,0,0,0,0,0,0,0,0,0,0,0,0,0,0,0,0,0,0,0,0,0,0,0,0,0,0,0,0,0,0,0,0,0,0,0,0,0,0,0,0,0,0,0,0,0,0,0,0,0,0,0,0,0,0,0,0,0,0,0,0,0,0,0,0,0,0,0,0,0,0,0,0,0,0,0,0,0,0,0,0,0,0,0,0,0,0,0],"id":7,"left_children":[1,3,5,7,9,11,13,15,17,-1,19,21,23,25,27,29,31,33,35,37,39,41,43,45,47,-1,49,51,53,55,57,59,61,63,65,67,69,71,73,75,77,79,-1,81,83,85,87,89,91,93,95,97,99,101,103,-1,-1,-1,-1,-1,-1,-1,-1,-1,-1,-1,-1,-1,-1,-1,-1,-1,-1,-1,-1,-1,-1,-1,-1,-1,-1,-1,-1,-1,-1,-1,-1,-1,-1,-1,-1,-1,-1,-1,-1,-1,-1,-1,-1,-1,-1,-1,-1,-1,-1],"loss_changes":[5.941715E2,1.4106696E2,1.1760989E2,8.199872E1,8.523468E0,1.1657623E1,1.773634E1,2.4183846E1,1.231451E1,0E0,8.649124E0,2.855713E0,5.4648056E0,5.6399765E0,3.671421E0,7.9552813E0,2.2146225E0,7.3391876E0,4.8483458E0,6.6142206E0,9.258652E-1,1.0315857E0,4.1084747E0,8.099064E0,4.746706E0,0E0,4.2186356E0,4.739322E0,5.2792573E0,5.92908E0,1.4918318E0,2.5125055E0,4.8675156E-1,2.4746704E0,6.30866E0,3.7251337E0,9.019476E0,2.5187542E0,4.315078E0,1.6723664E0,9.4350433E-1,3.1077576E-1,0E0,2.0798035E0,2.5902317E0,8.2593536E-1,1.8434467E0,5.0667686E0,5.105635E0,5.7850323E0,3.329193E0,3.6682892E0,4.4063993E0,1.3922462E0,4.4106193E0,0E0,0E0,0E0,0E0,0E0,0E0,0E0,0E0,0E0,0E0,0E0,0E0,0E0,0E0,0E0,0E0,0E0,0E0,0E0,0E0,0E0,0E0,0E0,0E0,0E0,0E0,0E0,0E0,0E0,0E0,0E0,0E0,0E0,0E0,0E0,0E0,0E0,0E0,0E0,0E0,0E0,0E0,0E0,0E0,0E0,0E0,0E0,0E0,0E0,0E0],"parents":[2147483647,0,0,1,1,2,2,3,3,4,4,5,5,6,6,7,7,8,8,10,10,11,11,12,12,13,13,14,14,15,15,16,16,17,17,18,18,19,19,20,20,21,21,22,22,23,23,24,24,26,26,27,27,28,28,29,29,30,30,31,31,32,32,33,33,34,34,35,35,36,36,37,37,38,38,39,39,40,40,41,41,43,43,44,44,45,45,46,46,47,47,48,48,49,49,50,50,51,51,52,52,53,53,54,54],"right_children":[2,4,6,8,10,12,14,16,18,-1,20,22,24,26,28,30,32,34,36,38,40,42,44,46,48,-1,50,52,54,56,58,60,62,64,66,68,70,72,74,76,78,80,-1,82,84,86,88,90,92,94,96,98,100,102,104,-1,-1,-1,-1,-1,-1,-1,-1,-1,-1,-1,-1,-1,-1,-1,-1,-1,-1,-1,-1,-1,-1,-1,-1,-1,-1,-1,-1,-1,-1,-1,-1,-1,-1,-1,-1,-1,-1,-1,-1,-1,-1,-1,-1,-1,-1,-1,-1,-1,-1],"split_conditions":[9.926283E2,2.6506338E0,4.4892635E0,4.9848343E2,4.9848343E2,5.637369E0,2.2925258E0,3.148969E0,4.8950176E0,1.1398923E-1,4.4892635E0,1.5626664E0,2.1599112E0,6.5663284E1,1.718338E1,6.690959E0,1.0507877E0,3.467853E0,7.620577E2,1.4346135E-1,2.6358458E-1,1.66236E0,1.6874744E1,1.4698954E1,1.23644196E2,8.857667E-2,1.2995075E0,6.7575884E-1,1.0999598E2,1.3804603E0,1.6020464E1,9.676982E-1,2.3001415E1,1.712995E2,1.694925E0,1.64075E2,1.3546541E0,1.4303247E2,6.117142E0,7.3047314E2,5.942218E0,1.7858336E2,-4.7761362E-2,6.3521254E-1,1.789266E3,1.0324524E1,8.750648E0,6.5339017E-1,8.365668E-1,1.7912547E2,7.8930063E0,4.6586683E-1,6.2779336E0,8.750648E0,1.1344866E1,-7.8745514E-2,6.303618E-3,9.7186044E-2,-7.060066E-3,7.318661E-2,-3.5826933E-2,1.0704936E-1,2.0964367E-2,-1.2942532E-1,6.4127664E-3,-7.854485E-2,2.4723668E-2,-2.91527E-2,4.1326392E-2,5.027203E-2,-8.838575E-2,2.3966111E-2,-1.3476942E-1,3.3828035E-2,1.04218476E-1,1.0230908E-2,9.4058484E-2,2.5526632E-2,1.0151931E-1,-1.511091E-1,-4.106101E-2,-8.273699E-2,-1.2850054E-1,7.667657E-2,-6.7275606E-2,-1.2575561E-1,-6.375026E-2,8.4138446E-2,-2.875177E-2,-4.914124E-2,-1.6159841E-1,9.728245E-2,-3.735131E-2,-6.654572E-2,-8.403776E-3,6.895527E-4,-9.532544E-2,-1.6929021E-2,-6.259123E-2,-3.7575584E-2,3.3104908E-2,9.974166E-2,1.1929466E-2,-2.7152855E-2,7.9647414E-2],"split_indices":[3,4,4,3,3,0,0,5,5,0,4,4,4,2,4,0,4,0,3,11,0,9,5,5,1,0,0,9,1,5,0,4,5,1,4,2,0,2,0,3,5,1,0,0,3,5,0,9,11,2,5,9,4,0,0,0,0,0,0,0,0,0,0,0,0,0,0,0,0,0,0,0,0,0,0,0,0,0,0,0,0,0,0,0,0,0,0,0,0,0,0,0,0,0,0,0,0,0,0,0,0,0,0,0,0],"split_type":[0,0,0,0,0,0,0,0,0,0,0,0,0,0,0,0,0,0,0,0,0,0,0,0,0,0,0,0,0,0,0,0,0,0,0,0,0,0,0,0,0,0,0,0,0,0,0,0,0,0,0,0,0,0,0,0,0,0,0,0,0,0,0,0,0,0,0,0,0,0,0,0,0,0,0,0,0,0,0,0,0,0,0,0,0,0,0,0,0,0,0,0,0,0,0,0,0,0,0,0,0,0,0,0,0],"sum_hessian":[1.2428563E3,6.556792E2,5.871771E2,2.3829681E2,4.173824E2,2.8223544E2,3.0494165E2,1.2946574E2,1.0883106E2,2.4858376E2,1.6879865E2,1.9631813E2,8.591733E1,1.187308E2,1.8621086E2,4.710156E1,8.236419E1,5.751365E1,5.1317417E1,4.642271E1,1.2237593E2,8.711291E1,1.0920522E2,4.9064632E1,3.6852695E1,1.722494E0,1.170083E2,1.5411285E2,3.2098015E1,3.807859E1,9.022969E0,3.1944775E1,5.041941E1,3.0145874E1,2.7367773E1,2.8027084E1,2.3290333E1,2.9304004E0,4.349231E1,9.126341E0,1.13249596E2,8.494435E1,2.16855E0,1.0616394E2,3.0412817E0,4.500055E1,4.064086E0,2.0309568E1,1.6543129E1,7.4363716E1,4.264458E1,1.1267331E2,4.143954E1,9.782548E0,2.2315468E1,1.0604417E1,2.7474174E1,7.5416517E0,1.4813173E0,3.0256363E1,1.6884109E0,4.9197594E1,1.221818E0,2.8837965E1,1.3079085E0,1.9630945E1,7.736828E0,1.4108349E1,1.39187355E1,5.524354E0,1.7765978E1,1.1532321E0,1.7771682E0,3.1430555E1,1.2061755E1,4.7987614E0,4.327579E0,2.4578648E0,1.1079173E2,8.379529E1,1.1490648E0,1.9854282E1,8.630966E1,1.2943653E0,1.7469163E0,3.925519E1,5.7453575E0,1.569194E0,2.4948921E0,1.4934732E1,5.374835E0,2.4773512E0,1.4065778E1,4.7388756E1,2.6974962E1,3.9570334E0,3.8687546E1,9.145265E1,2.122066E1,1.138678E1,3.0052761E1,7.072106E0,2.710442E0,1.8486326E1,3.829141E0],"tree_param":{"num_deleted":"0","num_feature":"12","num_nodes":"105","size_leaf_vector":"1"}},{"base_weights":[1.4655499E-2,6.489299E-1,-6.503112E-1,4.2913098E-2,9.6665823E-1,-1.1009563E0,-3.0433944E-1,5.3274E-1,-5.151778E-1,1.1070071E0,7.1705484E-1,-1.237047E0,-7.727057E-1,-4.3144402E-1,7.27594E-2,5.600674E-2,8.5293114E-1,-9.866662E-1,-3.3086005E-1,1.1107141E-1,4.4185483E-1,1.993474E-1,9.5231956E-1,-7.309787E-1,-1.2837832E0,-1.0772374E0,-5.07794E-1,-7.178324E-1,-3.5997552E-1,1.7527485E-1,-3.4751236E-1,-1.621715E-1,8.195126E-1,-1.8023608E-2,8.864614E-1,-1.6695778E-1,-1.1448252E0,-5.9060764E-1,-5.948656E-3,6.5955385E-3,5.8987837E-2,-1.5154895E-1,4.3705592E-1,3.8560054E-1,9.897436E-1,-1.4206155E-1,-4.13243E-1,-1.3890913E0,-1.0349439E0,-1.1828947E0,-2.2473842E-2,-2.2777267E-1,-9.4124633E-1,-5.1247966E-1,-1.14192E0,-1.7072922E-1,-5.0888085E-1,-1.9752234E-2,6.1692405E-1,-5.840863E-1,5.704286E-1,-3.124953E-3,-1.3793968E-1,9.793046E-2,-2.6272524E-2,6.751133E-2,1.0205459E-1,-5.0646003E-2,3.536278E-2,-2.9644657E-2,-1.2838025E-1,-7.3293485E-2,2.3751069E-2,-4.1386556E-2,5.0393518E-2,-9.263137E-2,3.1663254E-2,-4.014484E-2,5.6124683E-2,-2.3693139E-2,8.9535296E-2,9.987443E-2,8.451822E-3,-5.87399E-2,6.433508E-2,-3.0617846E-2,-1.4050119E-1,-6.728271E-2,-1.4857592E-1,-5.0550103E-2,-1.2707011E-1,-3.6974963E-2,4.3312043E-2,3.3864524E-2,-7.335905E-2,-1.1508109E-1,-1.0307737E-2,-6.563123E-2,1.30557595E-2,-1.3140848E-1,1.6548648E-2,4.6749197E-2,-2.82415E-2,-1.1397842E-1,-3.657974E-2,-6.4283654E-2,8.69497E-3,7.131436E-2,-3.825058E-2,-9.800979E-2,1.1142663E-2,-2.152041E-2,9.217029E-2],"categories":[],"categories_nodes":[],"categories_segments":[],"categories_sizes":[],"default_left":[0,0,0,0,0,0,0,0,0,0,0,0,0,0,0,0,0,0,0,0,0,0,0,0,0,0,0,0,0,0,0,0,0,0,0,0,0,0,0,0,0,0,0,0,0,0,0,0,0,0,0,0,0,0,0,0,0,0,0,0,0,0,0,0,0,0,0,0,0,0,0,0,0,0,0,0,0,0,0,0,0,0,0,0,0,0,0,0,0,0,0,0,0,0,0,0,0,0,0,0,0,0,0,0,0,0,0,0,0,0,0,0,0],"id":8,"left_children":[1,3,5,7,9,11,13,15,17,19,21,23,25,27,29,31,33,35,37,-1,39,41,43,45,47,49,51,53,55,57,59,61,63,-1,65,67,69,71,73,-1,-1,75,77,79,81,-1,83,85,87,89,91,93,95,97,99,101,103,105,107,109,111,-1,-1,-1,-1,-1,-1,-1,-1,-1,-1,-1,-1,-1,-1,-1,-1,-1,-1,-1,-1,-1,-1,-1,-1,-1,-1,-1,-1,-1,-1,-1,-1,-1,-1,-1,-1,-1,-1,-1,-1,-1,-1,-1,-1,-1,-1,-1,-1,-1,-1,-1,-1],"loss_changes":[5.1198743E2,1.1958432E2,9.206093E1,5.8977028E1,1.348288E1,1.0524506E1,1.6166279E1,1.7484367E1,8.440674E0,1.479187E-1,1.802105E1,3.3191528E0,5.744339E0,4.8976593E0,3.7539325E0,7.998353E0,2.5375519E0,3.4193592E0,6.244581E0,0E0,1.3337046E-1,4.0683794E0,1.7930374E0,3.256567E0,2.8459778E0,3.9171524E0,5.0772514E0,3.7085514E0,5.65073E0,6.0047035E0,4.056117E0,5.9421945E0,2.1006074E0,0E0,1.1997604E0,1.1821042E0,2.3517857E0,5.0221224E0,7.2597227E0,0E0,0E0,7.591323E0,3.230772E0,2.747632E0,6.940613E-1,0E0,2.8470917E0,1.4997101E0,7.575882E0,1.2696991E0,8.312148E-1,8.214833E0,2.8308287E0,3.3258686E0,3.6548157E0,6.6301904E0,9.823858E0,3.3289108E0,2.3251734E0,3.9996243E0,1.3074497E0,0E0,0E0,0E0,0E0,0E0,0E0,0E0,0E0,0E0,0E0,0E0,0E0,0E0,0E0,0E0,0E0,0E0,0E0,0E0,0E0,0E0,0E0,0E0,0E0,0E0,0E0,0E0,0E0,0E0,0E0,0E0,0E0,0E0,0E0,0E0,0E0,0E0,0E0,0E0,0E0,0E0,0E0,0E0,0E0,0E0,0E0,0E0,0E0,0E0,0E0,0E0,0E0],"parents":[2147483647,0,0,1,1,2,2,3,3,4,4,5,5,6,6,7,7,8,8,9,9,10,10,11,11,12,12,13,13,14,14,15,15,16,16,17,17,18,18,20,20,21,21,22,22,23,23,24,24,25,25,26,26,27,27,28,28,29,29,30,30,31,31,32,32,34,34,35,35,36,36,37,37,38,38,41,41,42,42,43,43,44,44,46,46,47,47,48,48,49,49,50,50,51,51,52,52,53,53,54,54,55,55,56,56,57,57,58,58,59,59,60,60],"right_children":[2,4,6,8,10,12,14,16,18,20,22,24,26,28,30,32,34,36,38,-1,40,42,44,46,48,50,52,54,56,58,60,62,64,-1,66,68,70,72,74,-1,-1,76,78,80,82,-1,84,86,88,90,92,94,96,98,100,102,104,106,108,110,112,-1,-1,-1,-1,-1,-1,-1,-1,-1,-1,-1,-1,-1,-1,-1,-1,-1,-1,-1,-1,-1,-1,-1,-1,-1,-1,-1,-1,-1,-1,-1,-1,-1,-1,-1,-1,-1,-1,-1,-1,-1,-1,-1,-1,-1,-1,-1,-1,-1,-1,-1,-1],"split_conditions":[9.926283E2,2.3638723E0,3.876478E0,4.9848343E2,5.480479E2,5.637369E0,6.066662E0,3.148969E0,2.6993458E0,2.4182018E1,4.4892635E0,3.4220132E-1,1.4903977E0,5.4386663E0,2.1470792E2,6.690959E0,1.1118083E1,1.1514513E-1,1.3844354E0,1.1107141E-1,1.5990413E2,2.762198E-1,2.6358458E-1,2.7645261E0,1.8512556E2,1.4513272E1,5.510164E-1,5.160862E-1,9.878924E0,1.883597E1,4E0,2.7051215E2,2.7051215E2,-1.8023608E-2,1.0507877E0,2.2621632E-1,5.558166E2,2.4182298E2,3.8125596E0,6.5955385E-3,5.8987837E-2,2.9657977E0,1E0,7.3047314E2,2.4182018E1,-1.4206155E-1,9.229342E-1,7.203917E1,2.3201573E2,9.060817E1,5.287674E-1,9.084361E0,1.9606969E2,4.1232367E0,3.0802239E3,8.4565445E1,1.1529601E3,4.4015517E0,1.5468439E0,1.4266551E2,1.1973437E2,-3.124953E-3,-1.3793968E-1,9.793046E-2,-2.6272524E-2,6.751133E-2,1.0205459E-1,-5.0646003E-2,3.536278E-2,-2.9644657E-2,-1.2838025E-1,-7.3293485E-2,2.3751069E-2,-4.1386556E-2,5.0393518E-2,-9.263137E-2,3.1663254E-2,-4.014484E-2,5.6124683E-2,-2.3693139E-2,8.9535296E-2,9.987443E-2,8.451822E-3,-5.87399E-2,6.433508E-2,-3.0617846E-2,-1.4050119E-1,-6.728271E-2,-1.4857592E-1,-5.0550103E-2,-1.2707011E-1,-3.6974963E-2,4.3312043E-2,3.3864524E-2,-7.335905E-2,-1.1508109E-1,-1.0307737E-2,-6.563123E-2,1.30557595E-2,-1.3140848E-1,1.6548648E-2,4.6749197E-2,-2.82415E-2,-1.1397842E-1,-3.657974E-2,-6.4283654E-2,8.69497E-3,7.131436E-2,-3.825058E-2,-9.800979E-2,1.1142663E-2,-2.152041E-2,9.217029E-2],"split_indices":[3,4,4,3,3,0,0,5,5,0,4,0,4,4,2,0,3,9,4,0,2,9,0,5,2,5,9,10,4,5,7,2,2,0,4,10,3,2,0,0,0,4,7,3,0,0,9,2,2,1,9,0,2,0,3,1,3,4,9,1,1,0,0,0,0,0,0,0,0,0,0,0,0,0,0,0,0,0,0,0,0,0,0,0,0,0,0,0,0,0,0,0,0,0,0,0,0,0,0,0,0,0,0,0,0,0,0,0,0,0,0,0,0],"split_type":[0,0,0,0,0,0,0,0,0,0,0,0,0,0,0,0,0,0,0,0,0,0,0,0,0,0,0,0,0,0,0,0,0,0,0,0,0,0,0,0,0,0,0,0,0,0,0,0,0,0,0,0,0,0,0,0,0,0,0,0,0,0,0,0,0,0,0,0,0,0,0,0,0,0,0,0,0,0,0,0,0,0,0,0,0,0,0,0,0,0,0,0,0,0,0,0,0,0,0,0,0,0,0,0,0,0,0,0,0,0,0,0,0],"sum_hessian":[1.2118975E3,6.202755E2,5.9162195E2,2.1373833E2,4.065372E2,2.5599442E2,3.3562753E2,1.1385507E2,9.988325E1,2.5802042E2,1.4851678E2,1.7900958E2,7.698484E1,2.5091144E2,8.471609E1,4.621716E1,6.763792E1,2.6849249E1,7.3034004E1,2.5592426E2,2.0961564E0,4.698098E1,1.0153581E2,1.6541018E1,1.6246855E2,3.438771E1,4.259713E1,4.8303947E1,2.0260748E2,6.85724E1,1.614368E1,3.6558E1,9.659161E0,1.9885772E0,6.564934E1,4.6750374E0,2.2174212E1,4.01326E1,3.29014E1,1.0006421E0,1.0955143E0,1.9119682E1,2.7861296E1,6.9899087E0,9.45459E1,4.1224E0,1.2418617E1,1.1093775E2,5.1530807E1,3.1146261E1,3.241449E0,2.6805544E1,1.5791588E1,3.4032887E1,1.4271059E1,9.016361E1,1.1244388E2,4.8229916E1,2.0342487E1,1.3124821E1,3.0188608E0,3.3933826E1,2.624172E0,8.499347E0,1.1598139E0,2.7825268E1,3.782407E1,2.8460844E0,1.8289528E0,3.5621772E0,1.8612034E1,3.4344765E1,5.787833E0,1.8382978E1,1.4518424E1,6.8332396E0,1.2286443E1,3.3062E0,2.4555096E1,3.387792E0,3.6021166E0,9.351279E1,1.0331147E0,1.1042561E1,1.3760569E0,1.9004688E0,1.09037285E2,2.9958853E1,2.1571953E1,4.349385E0,2.6796875E1,1.9463054E0,1.2951436E0,1.2801191E1,1.4004353E1,1.2334602E1,3.4569852E0,2.7795116E1,6.23777E0,1.2605947E1,1.665113E0,1.2953857E1,7.7209755E1,1.9499243E1,9.294463E1,6.3170433E0,4.1912876E1,1.8817312E1,1.5251757E0,8.102336E0,5.022485E0,1.0524331E0,1.9664277E0],"tree_param":{"num_deleted":"0","num_feature":"12","num_nodes":"113","size_leaf_vector":"1"}},{"base_weights":[4.1121155E-2,6.214201E-1,-5.3910726E-1,9.018864E-1,2.5465956E-1,8.041699E-1,-9.881181E-1,1.1099794E-1,8.0576503E-1,1.0851213E0,-5.286636E-2,6.6850674E-1,1.1875206E-1,-7.8842616E-1,-1.2133546E0,7.3772025E-1,9.8108953E-1,1.6287375E-2,1.0964484E0,-1.7826577E-1,2.5724545E-1,8.3658886E-1,4.5207936E-1,-1.064668E0,1.6206726E-2,-1.0733114E0,-1.504208E0,8.2576853E-1,5.4692185E-1,1.0067244E0,-3.1031948E-3,1.1086577E-1,2.4039017E-2,-4.0412405E-1,-2.5550442E-2,7.7517784E-1,-3.2442978E-1,8.678106E-1,-2.0488745E-2,-3.5006946E-1,5.7633656E-1,-5.308132E-1,-1.1023353E0,1.907731E-1,-4.1053146E-1,-1.1566937E0,-7.4951833E-1,-1.5254102E0,-1.3237948E-2,6.7811124E-2,9.458206E-2,2.7137002E-2,6.389773E-2,1.0345209E-1,2.0682981E-2,3.4430638E-2,-5.1028755E-2,5.8962096E-2,-1.5868988E-2,9.1013E-2,-1.1157468E-2,-4.6322912E-2,3.9587155E-2,6.693034E-2,9.674959E-2,-9.377137E-2,1.3031854E-2,-1.924838E-2,6.910322E-2,-1.2008708E-1,-4.787532E-3,-6.6665956E-3,-1.1180266E-1,8.767204E-3,7.407104E-2,-9.4223045E-2,7.086564E-3,3.474462E-3,-1.1862552E-1,3.721883E-2,-9.4889864E-2,-6.4829975E-2,-1.5715735E-1],"categories":[],"categories_nodes":[],"categories_segments":[],"categories_sizes":[],"default_left":[0,0,0,0,0,0,0,0,0,0,0,0,0,0,0,0,0,0,0,0,0,0,0,0,0,0,0,0,0,0,0,0,0,0,0,0,0,0,0,0,0,0,0,0,0,0,0,0,0,0,0,0,0,0,0,0,0,0,0,0,0,0,0,0,0,0,0,0,0,0,0,0,0,0,0,0,0,0,0,0,0,0,0],"id":9,"left_children":[1,3,5,7,9,11,13,-1,15,17,19,21,-1,23,25,27,29,-1,31,33,35,37,39,41,43,45,47,49,51,53,-1,-1,-1,55,57,59,61,63,-1,65,67,69,71,73,75,77,79,81,-1,-1,-1,-1,-1,-1,-1,-1,-1,-1,-1,-1,-1,-1,-1,-1,-1,-1,-1,-1,-1,-1,-1,-1,-1,-1,-1,-1,-1,-1,-1,-1,-1,-1,-1],"loss_changes":[3.9639008E2,6.031201E1,3.558686E2,5.7688293E0,6.5548615E1,6.9049606E0,1.890863E1,0E0,2.038208E0,5.458298E-1,7.3603654E0,3.6825867E0,0E0,5.2688217E1,6.764221E0,2.4179993E0,1.6320648E0,0E0,4.4766235E-1,4.6296954E0,1.6691088E1,2.1826744E0,5.282336E0,2.9624023E0,4.663186E0,2.975998E0,1.6701508E0,1.3957443E0,1.2698841E0,1.124649E0,0E0,0E0,0E0,4.482151E0,6.754395E0,3.5911732E0,2.823512E0,5.4078674E-1,0E0,2.2278516E0,4.058234E0,4.329151E0,2.588379E0,2.4503262E0,4.7213874E0,3.9630432E0,7.507473E0,1.5437012E0,0E0,0E0,0E0,0E0,0E0,0E0,0E0,0E0,0E0,0E0,0E0,0E0,0E0,0E0,0E0,0E0,0E0,0E0,0E0,0E0,0E0,0E0,0E0,0E0,0E0,0E0,0E0,0E0,0E0,0E0,0E0,0E0,0E0,0E0,0E0],"parents":[2147483647,0,0,1,1,2,2,3,3,4,4,5,5,6,6,8,8,9,9,10,10,11,11,13,13,14,14,15,15,16,16,18,18,19,19,20,20,21,21,22,22,23,23,24,24,25,25,26,26,27,27,28,28,29,29,33,33,34,34,35,35,36,36,37,37,39,39,40,40,41,41,42,42,43,43,44,44,45,45,46,46,47,47],"right_children":[2,4,6,8,10,12,14,-1,16,18,20,22,-1,24,26,28,30,-1,32,34,36,38,40,42,44,46,48,50,52,54,-1,-1,-1,56,58,60,62,64,-1,66,68,70,72,74,76,78,80,82,-1,-1,-1,-1,-1,-1,-1,-1,-1,-1,-1,-1,-1,-1,-1,-1,-1,-1,-1,-1,-1,-1,-1,-1,-1,-1,-1,-1,-1,-1,-1,-1,-1,-1,-1],"split_conditions":[1.00440454E3,5.128524E2,1.4957606E1,1.5619814E1,1.5061124E1,6.117142E0,2.4974623E1,1.1099794E-1,6.117142E0,8.397376E-3,5.915791E0,3.893136E-1,1.1875206E-1,5.9796147E0,5.6853576E0,1.3200494E2,1.9323751E0,1.6287375E-2,3.177626E2,2.2215694E1,2.4974623E1,2.7797168E2,4.6586683E-1,2.841056E-1,6.8498486E-1,7.685161E-1,1.7372305E2,3.216446E-1,8.9704746E-1,2.9822662E2,-3.1031948E-3,1.1086577E-1,2.4039017E-2,5.126024E-1,9.133859E1,4E0,1.471523E2,1.4221884E2,-2.0488745E-2,7.0084023E0,1.15372185E2,1.20595925E-1,1.5061124E1,5.287674E-1,9.8970085E-1,8.220915E1,8.386043E-1,1.0669312E3,-1.3237948E-2,6.7811124E-2,9.458206E-2,2.7137002E-2,6.389773E-2,1.0345209E-1,2.0682981E-2,3.4430638E-2,-5.1028755E-2,5.8962096E-2,-1.5868988E-2,9.1013E-2,-1.1157468E-2,-4.6322912E-2,3.9587155E-2,6.693034E-2,9.674959E-2,-9.377137E-2,1.3031854E-2,-1.924838E-2,6.910322E-2,-1.2008708E-1,-4.787532E-3,-6.6665956E-3,-1.1180266E-1,8.767204E-3,7.407104E-2,-9.4223045E-2,7.086564E-3,3.474462E-3,-1.1862552E-1,3.721883E-2,-9.4889864E-2,-6.4829975E-2,-1.5715735E-1],"split_indices":[3,3,6,6,6,0,6,0,0,9,0,9,0,0,0,1,9,0,2,6,6,2,9,0,9,9,1,9,0,2,0,0,0,0,1,7,1,2,0,6,2,11,6,9,9,2,9,3,0,0,0,0,0,0,0,0,0,0,0,0,0,0,0,0,0,0,0,0,0,0,0,0,0,0,0,0,0,0,0,0,0,0,0],"split_type":[0,0,0,0,0,0,0,0,0,0,0,0,0,0,0,0,0,0,0,0,0,0,0,0,0,0,0,0,0,0,0,0,0,0,0,0,0,0,0,0,0,0,0,0,0,0,0,0,0,0,0,0,0,0,0,0,0,0,0,0,0,0,0,0,0,0,0,0,0,0,0,0,0,0,0,0,0,0,0,0,0,0,0],"sum_hessian":[1.175264E3,5.875608E2,5.877032E2,3.3212308E2,2.5543774E2,1.4703549E2,4.406677E2,1.01606895E2,2.3051617E2,6.834532E1,1.8709242E2,1.1062907E2,3.6406425E1,2.359647E2,2.04703E2,1.6981673E2,6.0699444E1,1.0158374E0,6.732948E1,1.3352449E2,5.356793E1,6.0656487E1,4.9972576E1,1.7541801E2,6.0546684E1,1.4133957E2,6.336343E1,1.1391849E2,5.5898243E1,5.920524E1,1.4942065E0,6.60918E1,1.2376863E0,5.319924E1,8.032526E1,2.816062E1,2.5407307E1,5.9052925E1,1.6035614E0,6.4589825E0,4.351359E1,1.2555918E1,1.628621E2,4.3361633E1,1.7185053E1,1.1035018E2,3.0989384E1,6.228878E1,1.0746497E0,5.4067257E1,5.985123E1,1.4986542E1,4.09117E1,5.6933468E1,2.2717712E0,6.3301105E0,4.686913E1,1.368145E1,6.664381E1,2.4418137E1,3.742484E0,2.1601646E1,3.8056602E0,2.2320122E1,3.6732803E1,2.4769778E0,3.982005E0,5.5607715E0,3.7952824E1,4.636441E0,7.9194765E0,2.5090144E0,1.6035309E2,3.7492115E1,5.8695188E0,7.711017E0,9.474035E0,2.6674352E0,1.0768275E2,4.5461535E0,2.644323E1,3.8665845E0,5.84222E1],"tree_param":{"num_deleted":"0","num_feature":"12","num_nodes":"83","size_leaf_vector":"1"}},{"base_weights":[7.576335E-3,5.69184E-1,-5.2990234E-1,-1.5195319E-1,8.6438483E-1,7.0129776E-1,-9.234909E-1,1.0380443E0,-5.25135E-1,1.0681692E0,6.041163E-1,-2.3342204E-1,1.0474708E0,-1.3698943E0,-5.92132E-1,1.1113023E0,4.6489856E-1,-2.1423409E-3,-1.0477954E0,2.219538E-1,1.0803454E0,1.3001768E-1,8.86947E-1,-5.5576026E-1,9.221808E-1,2.4648967E-1,1.1138308E0,-1.4335616E0,-7.4328643E-1,-7.240921E-1,-2.0084162E-1,6.2540996E-1,1.1574713E-1,-3.0465528E-1,9.3259E-2,-5.718485E-1,5.8640325E-1,-1.2990774E0,-4.8454863E-1,-7.928402E-2,7.966874E-2,1.7624167E-1,1.088525E-1,1.11308694E-1,-2.6122415E-1,1.07813E-1,7.8374076E-1,-1.2322024E0,4.949543E-2,1.09151244E-1,3.2544744E-1,2.9123249E-3,8.678009E-2,6.7557937E-1,1.1522462E-1,-1.4520222E0,-8.540693E-1,-1.6625549E-1,-1.4415342E-1,-1.0887487E0,-6.3021636E-1,7.600399E-1,-9.445554E-1,8.9752905E-2,-1.4609078E-2,-1.07411675E-1,6.5414965E-2,-7.6764755E-2,4.8605666E-2,3.0514253E-2,9.921359E-2,-1.4501207E-1,4.68851E-2,-8.821601E-2,2.0203704E-2,6.296843E-2,-3.7388567E-2,-4.6800055E-2,6.240171E-2,2.5386771E-2,8.630248E-2,-1.289718E-1,-4.2673014E-2,-7.1510576E-2,2.5601903E-2,-2.8578589E-2,7.285863E-2,5.908648E-2,-5.2709367E-2,-8.1384994E-2,9.786292E-2,-1.4711091E-1,-9.424897E-2,-1.3071495E-1,3.1527262E-2,-6.028533E-2,5.4422837E-2,-1.2964764E-1,-4.6056673E-2,-3.3317126E-2,-7.8257486E-2,-2.9241165E-2,8.834473E-2,-1.01364605E-1,4.54059E-2],"categories":[],"categories_nodes":[],"categories_segments":[],"categories_sizes":[],"default_left":[0,0,0,0,0,0,0,0,0,0,0,0,0,0,0,0,0,0,0,0,0,0,0,0,0,0,0,0,0,0,0,0,0,0,0,0,0,0,0,0,0,0,0,0,0,0,0,0,0,0,0,0,0,0,0,0,0,0,0,0,0,0,0,0,0,0,0,0,0,0,0,0,0,0,0,0,0,0,0,0,0,0,0,0,0,0,0,0,0,0,0,0,0,0,0,0,0,0,0,0,0,0,0,0,0],"id":10,"left_children":[1,3,5,7,9,11,13,15,17,19,21,23,25,27,29,31,33,35,37,39,41,43,45,47,49,51,53,55,57,59,61,63,-1,65,-1,67,69,71,73,-1,-1,75,-1,-1,77,-1,79,81,83,-1,85,87,-1,89,-1,91,93,95,-1,97,99,101,103,-1,-1,-1,-1,-1,-1,-1,-1,-1,-1,-1,-1,-1,-1,-1,-1,-1,-1,-1,-1,-1,-1,-1,-1,-1,-1,-1,-1,-1,-1,-1,-1,-1,-1,-1,-1,-1,-1,-1,-1,-1,-1],"loss_changes":[3.473456E2,1.1992326E2,2.8558224E2,7.350631E1,2.0539612E1,4.6517113E1,6.515976E1,1.1443253E0,3.4367596E1,2.0550385E0,2.3713089E1,1.52134E1,5.2819977E0,6.484436E0,1.316301E1,4.681778E-2,2.5164647E0,2.1744274E1,8.27108E0,3.2082736E0,1.4299316E0,2.628025E1,1.3478241E0,1.295055E1,5.525212E-1,1.4022455E0,8.420944E-1,5.862427E-1,7.630042E0,5.898712E0,4.8157703E1,1.2137098E0,0E0,2.9884841E0,0E0,7.1984415E0,3.3375435E0,1.213324E1,5.9098277E0,0E0,0E0,1.023554E0,0E0,0E0,9.287983E0,0E0,2.966751E0,1.4017105E-1,2.9586153E0,0E0,1.0486231E0,2.7020438E0,0E0,5.389036E0,0E0,2.0861816E-1,4.4910316E0,3.9960651E0,0E0,4.3624687E0,6.770012E0,4.0920944E0,4.119377E0,0E0,0E0,0E0,0E0,0E0,0E0,0E0,0E0,0E0,0E0,0E0,0E0,0E0,0E0,0E0,0E0,0E0,0E0,0E0,0E0,0E0,0E0,0E0,0E0,0E0,0E0,0E0,0E0,0E0,0E0,0E0,0E0,0E0,0E0,0E0,0E0,0E0,0E0,0E0,0E0,0E0,0E0],"parents":[2147483647,0,0,1,1,2,2,3,3,4,4,5,5,6,6,7,7,8,8,9,9,10,10,11,11,12,12,13,13,14,14,15,15,16,16,17,17,18,18,19,19,20,20,21,21,22,22,23,23,24,24,25,25,26,26,27,27,28,28,29,29,30,30,31,31,33,33,35,35,36,36,37,37,38,38,41,41,44,44,46,46,47,47,48,48,50,50,51,51,53,53,55,55,56,56,57,57,59,59,60,60,61,61,62,62],"right_children":[2,4,6,8,10,12,14,16,18,20,22,24,26,28,30,32,34,36,38,40,42,44,46,48,50,52,54,56,58,60,62,64,-1,66,-1,68,70,72,74,-1,-1,76,-1,-1,78,-1,80,82,84,-1,86,88,-1,90,-1,92,94,96,-1,98,100,102,104,-1,-1,-1,-1,-1,-1,-1,-1,-1,-1,-1,-1,-1,-1,-1,-1,-1,-1,-1,-1,-1,-1,-1,-1,-1,-1,-1,-1,-1,-1,-1,-1,-1,-1,-1,-1,-1,-1,-1,-1,-1,-1],"split_conditions":[1.00440454E3,1.811422E0,1.5061124E1,1.4957606E1,4.9848343E2,1.8449644E0,4.0217986E0,7.9487506E2,5.128524E2,1.772355E-1,4.1889634E0,6.117142E0,2.709518E-1,1.1885753E1,5.9796147E0,2.0709173E-1,2.3119152E0,3.148969E0,6.556691E0,1.9441091E0,1.8909138E0,1.52042465E1,1.6101702E1,3.8579898E0,1.628804E2,1.1281573E1,2.768741E0,1.671891E1,2.4872303E1,5.500412E0,2.4974623E1,2.4726836E-1,1.1574713E-1,3.68999E0,9.3259E-2,6.690959E0,1.0507877E0,1.694925E0,2.4162622E-1,-7.928402E-2,7.966874E-2,2.9079878E-1,1.088525E-1,1.11308694E-1,7.4105053E0,1.07813E-1,1.8368547E1,1.4411397E0,1.1933695E3,1.09151244E-1,6.281885E-1,1.0736248E1,8.678009E-2,1.15372185E2,1.1522462E-1,3.7638452E0,7.7780643E0,2.1599112E0,-1.4415342E-1,7.064348E-1,8.923432E0,4.4015517E0,4.2119984E1,8.9752905E-2,-1.4609078E-2,-1.07411675E-1,6.5414965E-2,-7.6764755E-2,4.8605666E-2,3.0514253E-2,9.921359E-2,-1.4501207E-1,4.68851E-2,-8.821601E-2,2.0203704E-2,6.296843E-2,-3.7388567E-2,-4.6800055E-2,6.240171E-2,2.5386771E-2,8.630248E-2,-1.289718E-1,-4.2673014E-2,-7.1510576E-2,2.5601903E-2,-2.8578589E-2,7.285863E-2,5.908648E-2,-5.2709367E-2,-8.1384994E-2,9.786292E-2,-1.4711091E-1,-9.424897E-2,-1.3071495E-1,3.1527262E-2,-6.028533E-2,5.4422837E-2,-1.2964764E-1,-4.6056673E-2,-3.3317126E-2,-7.8257486E-2,-2.9241165E-2,8.834473E-2,-1.01364605E-1,4.54059E-2],"split_indices":[3,4,6,6,3,4,4,3,3,10,4,0,10,0,0,4,5,5,5,0,4,6,6,5,2,5,4,5,6,4,6,10,0,0,0,0,4,4,10,0,0,10,0,0,0,0,6,9,3,0,4,6,0,2,0,4,0,4,0,9,4,4,6,0,0,0,0,0,0,0,0,0,0,0,0,0,0,0,0,0,0,0,0,0,0,0,0,0,0,0,0,0,0,0,0,0,0,0,0,0,0,0,0,0,0],"split_type":[0,0,0,0,0,0,0,0,0,0,0,0,0,0,0,0,0,0,0,0,0,0,0,0,0,0,0,0,0,0,0,0,0,0,0,0,0,0,0,0,0,0,0,0,0,0,0,0,0,0,0,0,0,0,0,0,0,0,0,0,0,0,0,0,0,0,0,0,0,0,0,0,0,0,0,0,0,0,0,0,0,0,0,0,0,0,0,0,0,0,0,0,0,0,0,0,0,0,0,0,0,0,0,0,0],"sum_hessian":[1.1487153E3,5.6171954E2,5.869957E2,1.632954E2,3.9842413E2,1.4200438E2,4.449914E2,3.85586E1,1.2473679E2,2.2171902E2,1.7670511E2,3.8466007E1,1.0353837E2,1.8824944E2,2.5674194E2,3.335615E1,5.2024484E0,6.2850468E1,6.1886326E1,3.417812E0,2.1830121E2,6.657223E1,1.1013288E2,3.0482454E1,7.983554E0,8.282394E0,9.5255974E1,1.697173E2,1.853214E1,1.9135736E2,6.538458E1,4.1566596E0,2.9199493E1,2.0983524E0,3.1040957E0,3.1950794E1,3.0899675E1,4.189102E1,1.9995306E1,1.0985811E0,2.319231E0,2.1594315E0,2.1614177E2,1.8426683E1,4.8145546E1,3.5298412E1,7.4834465E1,1.3905564E1,1.6576889E1,5.5729914E0,2.4105623E0,6.671574E0,1.6108205E0,9.174727E0,8.6081245E1,1.6301839E2,6.698902E0,1.0824716E1,7.707426E0,3.700711E1,1.5435027E2,2.8517672E1,3.686691E1,2.952069E0,1.2045907E0,1.0973997E0,1.0009528E0,2.7192354E1,4.7584395E0,1.9283855E1,1.1615818E1,3.875937E1,3.1316507E0,1.2481971E1,7.513336E0,1.1044623E0,1.0549691E0,3.9411144E1,8.734403E0,1.0286888E1,6.454758E1,1.2417673E1,1.4878917E0,3.0016088E0,1.357528E1,1.0737128E0,1.3368496E0,3.1084478E0,3.5631266E0,1.266179E0,7.9085484E0,1.5531328E2,7.7051063E0,4.7432165E0,1.9556855E0,6.798484E0,4.0262313E0,2.7011175E1,9.995933E0,5.340879E1,1.0094147E2,2.849225E0,2.5668446E1,3.5393734E1,1.4731771E0],"tree_param":{"num_deleted":"0","num_feature":"12","num_nodes":"105","size_leaf_vector":"1"}},{"base_weights":[3.0813556E-2,5.921896E-1,-4.217224E-1,-7.622447E-2,8.218755E-1,-7.8186107E-1,-1.1502599E-1,3.0945596E-1,-5.7766104E-1,1.0381669E0,5.1041883E-1,-1.0179807E0,-5.9772474E-1,7.6835716E-1,-1.7026667E-1,-9.8827696E-1,4.2969698E-1,1.4813432E-1,-7.1610826E-1,5.182131E-1,1.07041955E-1,4.9387153E-2,8.98546E-1,-1.0337944E0,2.5199855E-2,-2.8252956E-1,-7.1366346E-1,-7.590422E-2,9.5102763E-1,-4.3461496E-1,-1.0061971E-1,-1.346401E0,-1.9229646E-1,-5.144622E-1,5.0678307E-1,8.56206E-1,-3.5474187E-1,-1.0177741E0,-4.4396317E-1,6.559634E-1,-2.1641442E-1,-3.213425E-1,1.6819736E-1,2.3493542E-1,9.3605405E-1,-1.0974226E0,-7.1426547E-1,-7.78977E-1,2.4421234E-3,-8.580449E-1,-4.0281898E-1,8.353713E-3,9.9772173E-1,-2.5901413E-1,-7.4481314E-1,-4.5975873E-1,-2.9090801E-2,-1.67932E-1,-1.8548481E-2,2.798296E-2,-5.8093872E-2,3.53638E-2,-8.834175E-2,2.7119165E-2,7.839991E-2,5.924125E-3,1.11010626E-1,-1.119436E-1,2.5993407E-2,-1.1317259E-1,1.6916035E-2,-5.889648E-2,5.5752497E-2,3.1117842E-2,8.5419826E-2,-4.2105004E-2,9.325885E-3,8.508511E-2,-4.9025346E-2,-7.89138E-3,5.9231628E-2,6.289847E-2,-5.52708E-2,2.7510786E-2,9.558659E-2,-6.9952407E-3,-1.1091458E-1,-1.0505109E-1,-3.574819E-2,-1.03587024E-1,-1.789604E-2,-4.5593392E-2,2.6806673E-2,1.6599204E-2,-8.9306764E-2,-6.5617844E-2,8.653912E-3,3.289711E-2,1.0495764E-1,6.6001653E-3,-6.341817E-2,-8.711451E-2,1.8562132E-2,6.663933E-2,-5.4041203E-2,2.4511335E-2,-1.4550981E-2],"categories":[],"categories_nodes":[],"categories_segments":[],"categories_sizes":[],"default_left":[0,0,0,0,0,0,0,0,0,0,0,0,0,0,0,0,0,0,0,0,0,0,0,0,0,0,0,0,0,0,0,0,0,0,0,0,0,0,0,0,0,0,0,0,0,0,0,0,0,0,0,0,0,0,0,0,0,0,0,0,0,0,0,0,0,0,0,0,0,0,0,0,0,0,0,0,0,0,0,0,0,0,0,0,0,0,0,0,0,0,0,0,0,0,0,0,0,0,0,0,0,0,0,0,0,0,0],"id":11,"left_children":[1,3,5,7,9,11,13,15,17,19,21,23,25,27,29,31,33,35,37,39,-1,41,43,45,-1,47,49,-1,51,53,55,57,59,61,63,65,67,69,71,73,75,77,79,81,83,85,87,89,91,93,95,-1,97,99,101,103,105,-1,-1,-1,-1,-1,-1,-1,-1,-1,-1,-1,-1,-1,-1,-1,-1,-1,-1,-1,-1,-1,-1,-1,-1,-1,-1,-1,-1,-1,-1,-1,-1,-1,-1,-1,-1,-1,-1,-1,-1,-1,-1,-1,-1,-1,-1,-1,-1,-1,-1],"loss_changes":[2.8007608E2,7.560347E1,6.733637E1,2.469207E1,2.4145248E1,1.1591141E1,1.6276348E1,1.1705999E1,5.678501E0,3.0542145E0,2.716977E1,2.7009964E0,5.64793E0,6.205392E0,5.704318E0,1.575079E0,5.127162E0,3.762015E0,3.385624E0,1.6100736E0,0E0,3.1625218E0,1.8339233E0,1.6603851E0,0E0,6.32593E0,4.877098E0,0E0,6.456871E-1,3.3369255E0,6.3678384E0,1.3390865E0,7.429414E-1,2.0878673E0,3.8575172E0,8.096447E-1,3.292688E0,3.085266E0,4.154517E0,5.8615494E-1,2.3208494E-1,3.8764043E0,5.7167916E0,2.1320753E0,7.553177E-1,1.1075592E0,2.3631163E0,2.3278713E0,3.7013829E0,2.9663734E0,4.866538E0,0E0,2.4380112E-1,5.274276E0,2.8523617E0,4.10128E0,6.6824174E0,0E0,0E0,0E0,0E0,0E0,0E0,0E0,0E0,0E0,0E0,0E0,0E0,0E0,0E0,0E0,0E0,0E0,0E0,0E0,0E0,0E0,0E0,0E0,0E0,0E0,0E0,0E0,0E0,0E0,0E0,0E0,0E0,0E0,0E0,0E0,0E0,0E0,0E0,0E0,0E0,0E0,0E0,0E0,0E0,0E0,0E0,0E0,0E0,0E0,0E0],"parents":[2147483647,0,0,1,1,2,2,3,3,4,4,5,5,6,6,7,7,8,8,9,9,10,10,11,11,12,12,13,13,14,14,15,15,16,16,17,17,18,18,19,19,21,21,22,22,23,23,25,25,26,26,28,28,29,29,30,30,31,31,32,32,33,33,34,34,35,35,36,36,37,37,38,38,39,39,40,40,41,41,42,42,43,43,44,44,45,45,46,46,47,47,48,48,49,49,50,50,52,52,53,53,54,54,55,55,56,56],"right_children":[2,4,6,8,10,12,14,16,18,20,22,24,26,28,30,32,34,36,38,40,-1,42,44,46,-1,48,50,-1,52,54,56,58,60,62,64,66,68,70,72,74,76,78,80,82,84,86,88,90,92,94,96,-1,98,100,102,104,106,-1,-1,-1,-1,-1,-1,-1,-1,-1,-1,-1,-1,-1,-1,-1,-1,-1,-1,-1,-1,-1,-1,-1,-1,-1,-1,-1,-1,-1,-1,-1,-1,-1,-1,-1,-1,-1,-1,-1,-1,-1,-1,-1,-1,-1,-1,-1,-1,-1,-1],"split_conditions":[8.9435876E2,4.7411065E0,4.418638E-1,5.0479724E2,4.9848343E2,5.096263E0,9.926283E2,8.884448E-1,7.8087315E-2,1.772355E-1,4.5156738E-1,1.8323245E2,1.6466439E-1,9.05958E2,5.599207E-1,1.8740364E2,7.334039E-2,2E0,4.8211434E-1,1.6839316E-1,1.07041955E-1,2.6609945E-1,7.5657936E1,9.911702E-1,2.5199855E-2,2.709518E-1,1.0710975E1,-7.590422E-2,1.7952766E-2,5.194611E-1,1.1529601E3,7.48947E-1,1.9427144E2,1.0066477E2,3.0475159E0,6.442646E2,4.5410237E-1,3.8153204E-1,1.021674E0,1.5122095E2,1.2005411E2,1.0602439E2,3.1940314E-1,6.9908104E1,2.2261593E-2,1.248714E-2,3.3278422E0,1.0324524E1,1.0511649E2,9.3344476E2,7.064348E-1,8.353713E-3,9.1615234E2,1.9027491E3,1.6342047E1,6.002475E-1,1.515692E3,-1.67932E-1,-1.8548481E-2,2.798296E-2,-5.8093872E-2,3.53638E-2,-8.834175E-2,2.7119165E-2,7.839991E-2,5.924125E-3,1.11010626E-1,-1.119436E-1,2.5993407E-2,-1.1317259E-1,1.6916035E-2,-5.889648E-2,5.5752497E-2,3.1117842E-2,8.5419826E-2,-4.2105004E-2,9.325885E-3,8.508511E-2,-4.9025346E-2,-7.89138E-3,5.9231628E-2,6.289847E-2,-5.52708E-2,2.7510786E-2,9.558659E-2,-6.9952407E-3,-1.1091458E-1,-1.0505109E-1,-3.574819E-2,-1.03587024E-1,-1.789604E-2,-4.5593392E-2,2.6806673E-2,1.6599204E-2,-8.9306764E-2,-6.5617844E-2,8.653912E-3,3.289711E-2,1.0495764E-1,6.6001653E-3,-6.341817E-2,-8.711451E-2,1.8562132E-2,6.663933E-2,-5.4041203E-2,2.4511335E-2,-1.4550981E-2],"split_indices":[3,5,10,3,3,5,3,5,9,10,10,1,9,3,10,3,10,7,11,10,0,11,1,11,0,10,5,0,9,10,3,9,2,1,5,3,11,10,9,2,1,2,10,1,9,9,5,5,1,3,9,0,3,3,5,10,3,0,0,0,0,0,0,0,0,0,0,0,0,0,0,0,0,0,0,0,0,0,0,0,0,0,0,0,0,0,0,0,0,0,0,0,0,0,0,0,0,0,0,0,0,0,0,0,0,0,0],"split_type":[0,0,0,0,0,0,0,0,0,0,0,0,0,0,0,0,0,0,0,0,0,0,0,0,0,0,0,0,0,0,0,0,0,0,0,0,0,0,0,0,0,0,0,0,0,0,0,0,0,0,0,0,0,0,0,0,0,0,0,0,0,0,0,0,0,0,0,0,0,0,0,0,0,0,0,0,0,0,0,0,0,0,0,0,0,0,0,0,0,0,0,0,0,0,0,0,0,0,0,0,0,0,0,0,0,0,0],"sum_hessian":[1.1004927E3,4.910415E2,6.0945123E2,1.2575302E2,3.6528848E2,2.795914E2,3.2985983E2,7.12974E1,5.4455612E1,2.1420227E2,1.5108623E2,1.2051961E2,1.590718E2,1.865344E1,3.112064E2,5.4336934E0,6.586371E1,8.712302E0,4.574331E1,1.3507737E1,2.0069453E2,6.9572586E1,8.151363E1,1.19221054E2,1.2985531E0,4.370116E1,1.1537063E2,1.6555234E0,1.6997915E1,6.380213E1,2.4740425E2,3.2706687E0,2.1630247E0,4.543277E0,6.1320435E1,3.3262208E0,5.3860817E0,2.039555E1,2.5347761E1,1.1465008E1,2.042729E0,1.647139E1,5.31012E1,4.749359E0,7.6764275E1,9.739261E1,2.1828442E1,1.530496E1,2.83962E1,7.757713E1,3.77935E1,1.0106642E0,1.5987252E1,4.19114E1,2.189073E1,4.018949E1,2.0721475E2,2.1947324E0,1.0759362E0,1.1030326E0,1.0599922E0,1.3674273E0,3.1758494E0,3.421833E1,2.7102102E1,1.1016352E0,2.2245855E0,2.0342147E0,3.3518672E0,1.8651428E1,1.7441204E0,2.2501732E1,2.846029E0,5.123527E0,6.3414807E0,1.0134022E0,1.0293267E0,1.566066E0,1.4905324E1,3.4066456E1,1.9034746E1,3.2998936E0,1.4494658E0,2.6672626E0,7.4097015E1,1.177277E0,9.621533E1,1.023666E1,1.1591781E1,1.0208047E1,5.096913E0,1.0155268E1,1.8240932E1,2.4417825E0,7.513535E1,2.4676588E1,1.3116911E1,1.6789198E0,1.4308332E1,2.289824E1,1.9013163E1,1.9329891E1,2.56084E0,2.200583E0,3.798891E1,6.14276E1,1.4578716E2],"tree_param":{"num_deleted":"0","num_feature":"12","num_nodes":"107","size_leaf_vector":"1"}},{"base_weights":[1.6124567E-2,8.907368E-1,-2.7174124E-1,4.5007277E-1,1.0721867E0,4.3237874E-1,-7.42106E-1,9.9459225E-1,-3.7020262E-2,8.22759E-1,1.0974938E-1,-2.6816547E-1,8.587774E-1,-1.1736044E0,-4.167676E-1,1.0606475E0,4.9523872E-1,-3.648108E-1,1.1501352E-1,1.076264E-1,3.4033564E-1,1.5924908E-1,-7.8339916E-1,1.045918E0,4.5992658E-1,-1.3108275E0,-8.5472625E-1,8.662028E-1,-5.176812E-1,4.1723236E-2,1.0843018E0,-1.7757453E-1,9.2232734E-2,-8.4188247E-1,-1.8078415E-2,-5.48878E-2,6.24044E-1,-2.5072742E-1,6.4003E-1,-1.4472128E-1,-5.1311123E-1,5.149793E-1,1.0572373E-1,-8.7752126E-2,7.968498E-1,-9.052979E-1,-1.3565791E0,-3.8729417E-1,-1.4688746E0,9.40013E-1,3.0007002E-1,-6.2752295E-1,-1.8926574E-1,5.602287E-2,1.1344681E-1,-8.98205E-2,6.592232E-2,-1.3397093E-1,-4.7317125E-2,4.978412E-2,-5.4799344E-2,1.0151602E-1,1.09779835E-2,-8.913418E-2,1.9136203E-2,2.3391942E-2,9.567387E-2,-8.319037E-2,2.0025384E-2,-3.3701416E-2,8.55494E-2,1.7501986E-2,-1.1917402E-1,2.6599351E-2,8.425914E-2,3.9755605E-2,-1.1310597E-1,-1.371351E-1,-1.9548431E-2,-8.9222096E-2,4.8052208E-3,-1.5320228E-1,-5.9687484E-2,9.8766886E-2,1.2160312E-2,-4.265345E-2,7.134193E-2,-4.716779E-2,-7.969994E-2,5.8527242E-2,-7.9765104E-2],"categories":[],"categories_nodes":[],"categories_segments":[],"categories_sizes":[],"default_left":[0,0,0,0,0,0,0,0,0,0,0,0,0,0,0,0,0,0,0,0,0,0,0,0,0,0,0,0,0,0,0,0,0,0,0,0,0,0,0,0,0,0,0,0,0,0,0,0,0,0,0,0,0,0,0,0,0,0,0,0,0,0,0,0,0,0,0,0,0,0,0,0,0,0,0,0,0,0,0,0,0,0,0,0,0,0,0,0,0,0,0],"id":12,"left_children":[1,3,5,7,9,11,13,15,17,19,-1,21,23,25,27,29,31,33,-1,-1,35,37,39,41,43,45,47,49,51,-1,53,55,-1,57,59,-1,61,63,65,-1,67,69,-1,71,73,75,77,79,81,83,85,87,89,-1,-1,-1,-1,-1,-1,-1,-1,-1,-1,-1,-1,-1,-1,-1,-1,-1,-1,-1,-1,-1,-1,-1,-1,-1,-1,-1,-1,-1,-1,-1,-1,-1,-1,-1,-1,-1,-1],"loss_changes":[2.7156363E2,2.087387E1,2.6910352E2,2.1156118E1,2.866974E-1,9.750546E1,6.786456E1,7.1603775E-1,1.7149923E1,2.2454052E0,0E0,2.7426838E1,1.4646652E1,8.01416E0,3.6590233E1,4.009247E-2,1.9661653E0,5.6833663E0,0E0,0E0,2.5672946E0,1.3681101E1,9.373634E0,2.798462E-1,1.234268E1,1.4450073E0,1.8286095E1,5.841665E-1,9.239601E0,0E0,1.6860199E-1,2.5664794E0,0E0,2.0235453E0,6.0064816E0,0E0,1.3274121E0,1.08594675E1,3.873042E0,0E0,9.631E0,1.6846019E0,0E0,7.8186197E0,7.7817345E-1,5.630122E0,1.9181213E0,8.539484E0,6.288948E-1,5.768738E-1,1.4635824E0,4.7472687E0,3.1780195E1,0E0,0E0,0E0,0E0,0E0,0E0,0E0,0E0,0E0,0E0,0E0,0E0,0E0,0E0,0E0,0E0,0E0,0E0,0E0,0E0,0E0,0E0,0E0,0E0,0E0,0E0,0E0,0E0,0E0,0E0,0E0,0E0,0E0,0E0,0E0,0E0,0E0,0E0],"parents":[2147483647,0,0,1,1,2,2,3,3,4,4,5,5,6,6,7,7,8,8,9,9,11,11,12,12,13,13,14,14,15,15,16,16,17,17,20,20,21,21,22,22,23,23,24,24,25,25,26,26,27,27,28,28,30,30,31,31,33,33,34,34,36,36,37,37,38,38,40,40,41,41,43,43,44,44,45,45,46,46,47,47,48,48,49,49,50,50,51,51,52,52],"right_children":[2,4,6,8,10,12,14,16,18,20,-1,22,24,26,28,30,32,34,-1,-1,36,38,40,42,44,46,48,50,52,-1,54,56,-1,58,60,-1,62,64,66,-1,68,70,-1,72,74,76,78,80,82,84,86,88,90,-1,-1,-1,-1,-1,-1,-1,-1,-1,-1,-1,-1,-1,-1,-1,-1,-1,-1,-1,-1,-1,-1,-1,-1,-1,-1,-1,-1,-1,-1,-1,-1,-1,-1,-1,-1,-1,-1],"split_conditions":[1.4957606E1,1.923788E0,8.3095447E2,1.00440454E3,5.03389E0,2.2831166E0,4.1295285E0,7.9487506E2,6.117142E0,1.0767279E3,1.0974938E-1,4.7706067E2,5.480479E2,5.915791E0,9.926283E2,3.241865E-1,2.3119152E0,3.3278422E0,1.1501352E-1,1.076264E-1,1.4996984E3,3.6389842E0,2.6993458E0,2.4473276E0,4.4892635E0,4.408523E-1,2.4872303E1,9.9592905E0,5.9796147E0,4.1723236E-2,2.0709173E-1,3.1262364E0,9.2232734E-2,1.4131412E2,3.8677216E-1,-5.48878E-2,2.8436918E0,6.550608E-1,2.812769E0,-1.4472128E-1,5.19383E0,1.9957015E-1,1.0572373E-1,2.0945709E2,2.6358458E-1,1.00440454E3,3.4633646E2,1.4903977E0,3.529816E0,1.4067056E0,1.214896E1,1.0016849E1,2.4974623E1,5.602287E-2,1.1344681E-1,-8.98205E-2,6.592232E-2,-1.3397093E-1,-4.7317125E-2,4.978412E-2,-5.4799344E-2,1.0151602E-1,1.09779835E-2,-8.913418E-2,1.9136203E-2,2.3391942E-2,9.567387E-2,-8.319037E-2,2.0025384E-2,-3.3701416E-2,8.55494E-2,1.7501986E-2,-1.1917402E-1,2.6599351E-2,8.425914E-2,3.9755605E-2,-1.1310597E-1,-1.371351E-1,-1.9548431E-2,-8.9222096E-2,4.8052208E-3,-1.5320228E-1,-5.9687484E-2,9.8766886E-2,1.2160312E-2,-4.265345E-2,7.134193E-2,-4.716779E-2,-7.969994E-2,5.8527242E-2,-7.9765104E-2],"split_indices":[6,4,3,3,5,4,4,3,0,3,0,3,3,0,3,0,5,5,0,0,3,5,5,4,4,0,6,0,0,0,4,0,0,2,9,0,0,4,0,0,0,9,0,2,0,3,2,4,4,9,0,4,6,0,0,0,0,0,0,0,0,0,0,0,0,0,0,0,0,0,0,0,0,0,0,0,0,0,0,0,0,0,0,0,0,0,0,0,0,0,0],"split_type":[0,0,0,0,0,0,0,0,0,0,0,0,0,0,0,0,0,0,0,0,0,0,0,0,0,0,0,0,0,0,0,0,0,0,0,0,0,0,0,0,0,0,0,0,0,0,0,0,0,0,0,0,0,0,0,0,0,0,0,0,0,0,0,0,0,0,0,0,0,0,0,0,0,0,0,0,0,0,0,0,0,0,0,0,0,0,0,0,0,0,0],"sum_hessian":[1.0766523E3,2.660941E2,8.105583E2,7.862587E1,1.8746822E2,3.2464963E2,4.8590863E2,3.663257E1,4.1993305E1,2.0355404E1,1.6711281E2,1.2297731E2,2.0167232E2,2.0775482E2,2.781538E2,3.1360155E1,5.2724123E0,3.344999E1,8.543317E0,1.2536657E1,7.8187475E0,6.759471E1,5.53826E1,1.3616257E2,6.550975E1,1.4307465E2,6.468018E1,1.9730131E1,2.5842368E2,1.7729609E0,2.9587193E1,2.2741132E0,2.9982991E0,1.3477772E1,1.9972216E1,1.6651359E0,6.1536117E0,3.6742107E1,3.0852608E1,1.4765334E1,4.0617264E1,3.8128579E0,1.3234972E2,2.5232735E1,4.0277016E1,1.661256E1,1.2646208E2,3.7652927E1,2.7027258E1,1.6870243E1,2.859888E0,1.9297166E2,6.5452E1,3.64774E0,2.5939453E1,1.1824402E0,1.0916731E0,4.614233E0,8.863539E0,1.0150411E1,9.821805E0,2.9420629E0,3.211549E0,1.4587596E1,2.215451E1,1.4280076E1,1.657253E1,2.7957361E1,1.26599045E1,1.0916778E0,2.7211802E0,2.10612E1,4.1715355E0,3.7358274E0,3.654119E1,2.3411286E0,1.4271432E1,1.24694565E2,1.7675134E0,1.6947407E1,2.070552E1,2.449638E1,2.530878E0,1.5746512E1,1.1237309E0,1.0254343E0,1.8344539E0,1.02499565E2,9.047211E1,2.8810812E1,3.664119E1],"tree_param":{"num_deleted":"0","num_feature":"12","num_nodes":"91","size_leaf_vector":"1"}},{"base_weights":[2.7634753E-2,8.4943986E-1,-2.3412533E-1,4.5819798E-1,1.0534418E0,7.15179E-1,-5.3133285E-1,9.8035556E-1,-4.880712E-2,1.0643994E-1,3.8040766E-1,2.1948305E-1,1.006364E0,-8.918181E-1,-1.782873E-1,1.0343596E0,2.0046107E-2,-2.9789287E-1,9.157225E-1,7.175734E-2,-2.4734162E-2,-2.3823573E-1,4.063425E-1,1.0213484E0,1.1769941E-1,-5.59077E-1,-1.088368E0,6.911827E-1,-4.0441853E-1,1.0523229E0,2.1502966E-2,6.0449935E-2,-5.6841414E-2,-1.1343515E-1,-7.9983175E-1,1.6791485E-2,9.905757E-1,3.2180083E-1,-6.051238E-1,-1.6416664E-1,5.555647E-1,6.993095E-1,1.0541339E-1,-3.8318668E-2,5.6059618E-2,-6.076549E-1,1.06657624E-1,-1.2366159E0,-8.0213267E-1,1.8678072E-1,8.100918E-1,-2.0075351E-1,-6.0038507E-1,2.2370385E-2,1.0710652E-1,-6.834819E-2,2.155426E-2,-1.0553838E-1,4.798536E-2,2.22038E-2,1.0797534E-1,-4.614502E-2,5.968846E-2,2.27909E-2,-8.533737E-2,-5.1818307E-2,4.911148E-2,6.4215146E-2,6.2741474E-3,1.0085156E-1,-2.2987003E-2,-7.722654E-2,-9.968874E-3,-1.2447641E-1,-3.8887307E-2,-4.4749837E-2,-1.2159455E-1,6.959699E-2,-2.9557815E-2,4.506099E-2,8.854791E-2,-4.2316113E-2,6.8165176E-2,-6.312799E-2,9.688073E-2],"categories":[],"categories_nodes":[],"categories_segments":[],"categories_sizes":[],"default_left":[0,0,0,0,0,0,0,0,0,0,0,0,0,0,0,0,0,0,0,0,0,0,0,0,0,0,0,0,0,0,0,0,0,0,0,0,0,0,0,0,0,0,0,0,0,0,0,0,0,0,0,0,0,0,0,0,0,0,0,0,0,0,0,0,0,0,0,0,0,0,0,0,0,0,0,0,0,0,0,0,0,0,0,0,0],"id":13,"left_children":[1,3,5,7,9,11,13,15,17,-1,19,21,23,25,27,29,31,33,35,-1,-1,37,39,41,43,45,47,49,51,53,-1,-1,-1,55,57,-1,59,61,63,65,67,69,-1,-1,-1,71,-1,73,75,77,79,81,83,-1,-1,-1,-1,-1,-1,-1,-1,-1,-1,-1,-1,-1,-1,-1,-1,-1,-1,-1,-1,-1,-1,-1,-1,-1,-1,-1,-1,-1,-1,-1,-1],"loss_changes":[2.2447734E2,1.9636734E1,2.2369852E2,2.3387592E1,8.113251E-1,2.7080658E1,7.663016E1,2.2341347E0,1.1248074E1,0E0,1.0660406E0,6.1927376E0,1.462738E0,1.8899643E1,6.045903E1,3.792801E-1,1.4904987E0,3.3406346E0,3.722372E-1,0E0,0E0,4.56963E0,4.431363E0,4.9575043E-1,9.028404E-1,9.557938E0,6.9204254E0,3.6599083E0,9.599342E0,3.8169098E-1,0E0,0E0,0E0,5.448279E0,3.7094274E0,0E0,3.4568787E-1,2.2319133E0,2.9266524E0,2.8855727E0,1.6938667E0,4.185379E0,0E0,0E0,0E0,9.136543E0,0E0,3.5173035E-1,9.210274E0,3.502286E0,9.8641205E-1,2.4020287E1,6.6042404E0,0E0,0E0,0E0,0E0,0E0,0E0,0E0,0E0,0E0,0E0,0E0,0E0,0E0,0E0,0E0,0E0,0E0,0E0,0E0,0E0,0E0,0E0,0E0,0E0,0E0,0E0,0E0,0E0,0E0,0E0,0E0,0E0],"parents":[2147483647,0,0,1,1,2,2,3,3,4,4,5,5,6,6,7,7,8,8,10,10,11,11,12,12,13,13,14,14,15,15,16,16,17,17,18,18,21,21,22,22,23,23,24,24,25,25,26,26,27,27,28,28,29,29,33,33,34,34,36,36,37,37,38,38,39,39,40,40,41,41,45,45,47,47,48,48,49,49,50,50,51,51,52,52],"right_children":[2,4,6,8,10,12,14,16,18,-1,20,22,24,26,28,30,32,34,36,-1,-1,38,40,42,44,46,48,50,52,54,-1,-1,-1,56,58,-1,60,62,64,66,68,70,-1,-1,-1,72,-1,74,76,78,80,82,84,-1,-1,-1,-1,-1,-1,-1,-1,-1,-1,-1,-1,-1,-1,-1,-1,-1,-1,-1,-1,-1,-1,-1,-1,-1,-1,-1,-1,-1,-1,-1,-1],"split_conditions":[1.5061124E1,3.0914775E-1,5.128524E2,1.00440454E3,1.4957606E1,3.2195926E-1,4.6023035E-1,3.0284873E-1,6.117142E0,1.0643994E-1,4.5803447E0,1.2723953E0,1.9323751E0,1.00440454E3,1.00440454E3,3.4633646E2,4.9008605E-1,6.264796E-1,1.8896577E0,7.175734E-2,-2.4734162E-2,4.2138156E-1,1.1807139E-1,3.572109E-1,2.6940164E2,4.107557E1,5.637369E0,5.514375E-1,2.4974623E1,1.43617615E-2,2.1502966E-2,6.0449935E-2,-5.6841414E-2,1.224745E0,4E0,1.6791485E-2,4.6336442E-2,8.232393E1,1E0,5.083965E0,4.154081E2,3.489171E-1,1.0541339E-1,-3.8318668E-2,5.6059618E-2,6.191284E0,1.06657624E-1,9.36735E-1,2.4974623E1,2.6072354E0,1.07915655E-1,5.9796147E0,4.5663654E1,2.2370385E-2,1.0710652E-1,-6.834819E-2,2.155426E-2,-1.0553838E-1,4.798536E-2,2.22038E-2,1.0797534E-1,-4.614502E-2,5.968846E-2,2.27909E-2,-8.533737E-2,-5.1818307E-2,4.911148E-2,6.4215146E-2,6.2741474E-3,1.0085156E-1,-2.2987003E-2,-7.722654E-2,-9.968874E-3,-1.2447641E-1,-3.8887307E-2,-4.4749837E-2,-1.2159455E-1,6.959699E-2,-2.9557815E-2,4.506099E-2,8.854791E-2,-4.2316113E-2,6.8165176E-2,-6.312799E-2,9.688073E-2],"split_indices":[6,10,3,3,6,10,10,10,0,0,0,0,9,3,3,2,9,11,6,0,0,0,10,10,3,6,0,10,6,9,0,0,0,0,7,0,9,3,8,0,3,10,0,0,0,0,0,11,6,0,9,0,6,0,0,0,0,0,0,0,0,0,0,0,0,0,0,0,0,0,0,0,0,0,0,0,0,0,0,0,0,0,0,0,0],"split_type":[0,0,0,0,0,0,0,0,0,0,0,0,0,0,0,0,0,0,0,0,0,0,0,0,0,0,0,0,0,0,0,0,0,0,0,0,0,0,0,0,0,0,0,0,0,0,0,0,0,0,0,0,0,0,0,0,0,0,0,0,0,0,0,0,0,0,0,0,0,0,0,0,0,0,0,0,0,0,0,0,0,0,0,0,0],"sum_hessian":[1.0415942E3,2.5107866E2,7.905155E2,8.716215E1,1.639165E2,1.8814838E2,6.023671E2,4.247949E1,4.4682663E1,1.6071838E2,3.1981177E0,7.027321E1,1.1787517E2,2.9728818E2,3.0507898E2,4.0144794E1,2.3346934E0,3.606117E1,8.621493E0,1.9875243E0,1.2105935E0,2.0292088E1,4.998112E1,1.1577372E2,2.1014464E0,1.1182433E2,1.8546385E2,6.2543587E1,2.4253539E2,3.9005257E1,1.1395396E0,1.1576602E0,1.1770332E0,2.7266855E1,8.794313E0,1.0795627E0,7.5419307E0,8.080497E0,1.221159E1,1.0341844E1,3.963928E1,1.27606735E1,1.0301305E2,1.0494298E0,1.0520165E0,1.0918778E2,2.6365476E0,1.1999529E2,6.546855E1,1.2421874E1,5.012171E1,1.19924324E2,1.2261105E2,1.1488509E0,3.7856403E1,9.58337E0,1.7683485E1,7.4765344E0,1.317779E0,1.1469868E0,6.394944E0,1.9241996E0,6.1562977E0,2.8224506E0,9.389139E0,6.8502245E0,3.4916193E0,3.3457882E1,6.181399E0,9.510463E0,3.2502103E0,8.207153E1,2.711625E1,1.1838906E2,1.6062363E0,3.6376007E1,2.9092545E1,5.8274436E0,6.5944304E0,9.898467E0,4.0223244E1,9.619828E1,2.3726044E1,1.2082982E2,1.7812357E0],"tree_param":{"num_deleted":"0","num_feature":"12","num_nodes":"85","size_leaf_vector":"1"}},{"base_weights":[3.2628976E-2,8.7565035E-1,-2.2199261E-1,4.741957E-1,1.0341485E0,4.7447112E-1,-5.659529E-1,9.3664396E-1,-1.9589422E-2,2.536866E-1,1.0428026E0,-2.8762165E-1,7.754097E-1,-8.903579E-1,-2.0022352E-1,1.0000091E0,5.764928E-2,-2.847596E-1,7.475298E-1,6.3580826E-2,-2.8336076E-2,7.542792E-1,1.0595849E0,3.574227E-2,-8.8774E-1,-4.8908085E-2,8.61238E-1,-5.2015555E-1,-1.000059E0,7.6095986E-1,-3.178871E-1,6.4521486E-1,1.1155336E-1,-5.766627E-2,6.380966E-2,-3.442241E-2,-1.149818E0,1.0735249E-1,5.725048E-2,1.6172956E-1,9.3846893E-1,1.06662504E-1,5.300783E-1,-2.2868271E-1,5.468838E-1,-1.1423645E0,2.468351E-1,-2.9906803E-1,6.103436E-1,1.0291988E0,4.8099265E-1,-1.0179948E0,-2.126805E-1,-1.1581392E0,-7.3768824E-1,-3.6947346E-1,8.8848364E-1,-1.2188703E-1,-5.062913E-1,9.981295E-2,6.640975E-5,-5.714282E-2,3.9797034E-2,-1.4231518E-1,6.749494E-4,-5.2098006E-2,5.112914E-2,-3.6764536E-2,7.21791E-2,2.9491622E-2,1.0598151E-1,1.9510966E-3,8.1127435E-2,-1.165845E-1,-8.886274E-3,9.207992E-2,3.938886E-3,-4.600714E-2,-1.3904913E-1,-6.455212E-2,7.2254084E-2,8.0102265E-2,-4.9517453E-2,8.9772776E-2,-1.1711788E-2,3.3768576E-2,1.0451924E-1,1.6797291E-2,7.7619664E-2,-1.1255095E-1,-1.0289273E-2,-4.875876E-3,-7.943693E-2,-1.23134725E-1,-8.198735E-2,-4.3272153E-2,-1.1166412E-1,-9.910026E-2,5.576223E-2,9.952962E-2,1.8834816E-2,-3.430518E-2,7.829642E-2,-6.838223E-2,-1.8079432E-2],"categories":[],"categories_nodes":[],"categories_segments":[],"categories_sizes":[],"default_left":[0,0,0,0,0,0,0,0,0,0,0,0,0,0,0,0,0,0,0,0,0,0,0,0,0,0,0,0,0,0,0,0,0,0,0,0,0,0,0,0,0,0,0,0,0,0,0,0,0,0,0,0,0,0,0,0,0,0,0,0,0,0,0,0,0,0,0,0,0,0,0,0,0,0,0,0,0,0,0,0,0,0,0,0,0,0,0,0,0,0,0,0,0,0,0,0,0,0,0,0,0,0,0,0,0],"id":14,"left_children":[1,3,5,7,9,11,13,15,17,19,21,23,25,27,29,31,33,35,37,-1,-1,39,41,43,45,47,49,51,53,55,57,59,-1,-1,-1,61,63,-1,65,67,69,-1,71,73,75,77,79,81,83,85,87,89,91,93,95,97,99,101,103,-1,-1,-1,-1,-1,-1,-1,-1,-1,-1,-1,-1,-1,-1,-1,-1,-1,-1,-1,-1,-1,-1,-1,-1,-1,-1,-1,-1,-1,-1,-1,-1,-1,-1,-1,-1,-1,-1,-1,-1,-1,-1,-1,-1,-1,-1],"loss_changes":[2.1861285E2,1.4541779E1,1.8767426E2,1.5709947E1,8.737488E-1,5.9662113E1,6.2007324E1,1.919899E0,7.1722126E0,8.306411E-1,6.30188E-3,1.4411209E1,1.320665E1,1.07482605E1,2.8251873E1,6.351433E-1,1.6376772E0,5.622946E0,1.9782214E0,0E0,0E0,1.2250471E0,1.1444092E-2,6.763277E0,7.7888355E0,3.2323906E0,1.0271446E1,9.811388E0,7.978241E0,4.2646294E0,8.112459E0,2.3858652E0,0E0,0E0,0E0,5.1756067E0,1.8550901E0,0E0,1.3070506E0,1.5104842E0,4.227152E-1,0E0,5.610808E-1,4.230241E0,3.1972609E0,2.9831963E0,2.8372836E0,3.433589E0,1.2373986E0,9.305649E-1,4.8157578E0,2.3191032E0,3.9433522E0,2.2378693E0,9.088406E0,2.5546167E0,1.669527E0,2.2243805E1,6.380123E0,0E0,0E0,0E0,0E0,0E0,0E0,0E0,0E0,0E0,0E0,0E0,0E0,0E0,0E0,0E0,0E0,0E0,0E0,0E0,0E0,0E0,0E0,0E0,0E0,0E0,0E0,0E0,0E0,0E0,0E0,0E0,0E0,0E0,0E0,0E0,0E0,0E0,0E0,0E0,0E0,0E0,0E0,0E0,0E0,0E0,0E0],"parents":[2147483647,0,0,1,1,2,2,3,3,4,4,5,5,6,6,7,7,8,8,9,9,10,10,11,11,12,12,13,13,14,14,15,15,16,16,17,17,18,18,21,21,22,22,23,23,24,24,25,25,26,26,27,27,28,28,29,29,30,30,31,31,35,35,36,36,38,38,39,39,40,40,42,42,43,43,44,44,45,45,46,46,47,47,48,48,49,49,50,50,51,51,52,52,53,53,54,54,55,55,56,56,57,57,58,58],"right_children":[2,4,6,8,10,12,14,16,18,20,22,24,26,28,30,32,34,36,38,-1,-1,40,42,44,46,48,50,52,54,56,58,60,-1,-1,-1,62,64,-1,66,68,70,-1,72,74,76,78,80,82,84,86,88,90,92,94,96,98,100,102,104,-1,-1,-1,-1,-1,-1,-1,-1,-1,-1,-1,-1,-1,-1,-1,-1,-1,-1,-1,-1,-1,-1,-1,-1,-1,-1,-1,-1,-1,-1,-1,-1,-1,-1,-1,-1,-1,-1,-1,-1,-1,-1,-1,-1,-1,-1],"split_conditions":[1.5061124E1,2.709518E-1,7.133121E2,1.0975626E3,1.5115119E0,4.677685E0,5.3083307E-1,3.1206714E2,5.5715413E0,6.442646E2,3.0514362E-1,4.7706067E2,1.9368273E-1,1.00440454E3,9.926283E2,2.4425342E0,6.593318E-1,6.1929184E-1,1.3415753E2,6.3580826E-2,-2.8336076E-2,9.685848E1,1.4957606E1,3.148969E0,7.6941977E0,6.191284E0,5.200047E2,4.4179287E0,5.083965E0,7.370323E2,2.4974623E1,6.0553784E2,1.1155336E-1,-5.766627E-2,6.380966E-2,1.4907091E0,4E0,1.0735249E-1,9.934726E0,9.656683E0,3.4784698E0,1.06662504E-1,6.972869E-1,7.334039E-2,2.609461E1,1.4268745E2,1.8888961E0,1.124373E2,3E0,1.1118083E1,4.418638E-1,3.6394626E-1,1.4105647E2,4.456435E-1,2.4974623E1,2.5442192E1,3.267361E1,5.915791E0,1.3222191E2,9.981295E-2,6.640975E-5,-5.714282E-2,3.9797034E-2,-1.4231518E-1,6.749494E-4,-5.2098006E-2,5.112914E-2,-3.6764536E-2,7.21791E-2,2.9491622E-2,1.0598151E-1,1.9510966E-3,8.1127435E-2,-1.165845E-1,-8.886274E-3,9.207992E-2,3.938886E-3,-4.600714E-2,-1.3904913E-1,-6.455212E-2,7.2254084E-2,8.0102265E-2,-4.9517453E-2,8.9772776E-2,-1.1711788E-2,3.3768576E-2,1.0451924E-1,1.6797291E-2,7.7619664E-2,-1.1255095E-1,-1.0289273E-2,-4.875876E-3,-7.943693E-2,-1.23134725E-1,-8.198735E-2,-4.3272153E-2,-1.1166412E-1,-9.910026E-2,5.576223E-2,9.952962E-2,1.8834816E-2,-3.430518E-2,7.829642E-2,-6.838223E-2,-1.8079432E-2],"split_indices":[6,10,3,3,5,5,10,2,0,3,10,3,10,3,3,5,11,11,1,0,0,1,6,5,0,0,3,5,0,3,6,3,0,0,0,0,7,0,6,6,5,0,10,10,6,2,5,2,7,3,10,10,1,10,6,6,6,0,1,0,0,0,0,0,0,0,0,0,0,0,0,0,0,0,0,0,0,0,0,0,0,0,0,0,0,0,0,0,0,0,0,0,0,0,0,0,0,0,0,0,0,0,0,0,0],"split_type":[0,0,0,0,0,0,0,0,0,0,0,0,0,0,0,0,0,0,0,0,0,0,0,0,0,0,0,0,0,0,0,0,0,0,0,0,0,0,0,0,0,0,0,0,0,0,0,0,0,0,0,0,0,0,0,0,0,0,0,0,0,0,0,0,0,0,0,0,0,0,0,0,0,0,0,0,0,0,0,0,0,0,0,0,0,0,0,0,0,0,0,0,0,0,0,0,0,0,0,0,0,0,0,0,0],"sum_hessian":[1.01654944E3,2.3524445E2,7.81305E2,6.77173E1,1.6752715E2,2.5817105E2,5.23134E2,3.4505108E1,3.3212193E1,2.169702E0,1.6535744E2,7.3099396E1,1.8507166E2,2.7646906E2,2.4666489E2,3.2056538E1,2.4485703E0,2.5148054E1,8.064137E0,1.1602565E0,1.0094454E0,1.1615037E1,1.537424E2,4.8114258E1,2.4985134E1,1.7493128E1,1.6757852E2,6.45105E1,2.1195857E2,2.6306026E1,2.2035886E2,9.491557E0,2.2564981E1,1.1731137E0,1.2754565E0,2.0310297E1,4.837757E0,5.100259E0,2.9638786E0,3.1996448E0,8.415393E0,1.5072408E2,3.0183308E0,3.2074173E1,1.6040085E1,2.0400038E1,4.585098E0,1.3077199E1,4.415928E0,1.15051605E2,5.2526924E1,2.3748308E1,4.076219E1,1.3013635E2,8.182221E1,2.4744046E0,2.3831623E1,1.08809456E2,1.115494E2,5.7788596E0,3.7126977E0,8.915827E0,1.139447E1,3.7265568E0,1.1112005E0,1.2388049E0,1.7250737E0,1.8215051E0,1.3781399E0,1.879252E0,6.5361404E0,1.451759E0,1.5665717E0,3.2113667E0,2.8862806E1,8.766584E0,7.2734995E0,6.2014956E0,1.4198542E1,1.4702126E0,3.114885E0,1.5118128E0,1.1565387E1,2.997649E0,1.4182788E0,3.1007025E0,1.119509E2,2.6255692E1,2.6271235E1,2.104573E1,2.7025776E0,3.264621E1,8.115983E0,1.04812485E2,2.5323872E1,4.652365E1,3.529856E1,1.4400538E0,1.0343509E0,2.031135E1,3.5202727E0,8.793673E1,2.0872723E1,7.146851E1,4.008089E1],"tree_param":{"num_deleted":"0","num_feature":"12","num_nodes":"105","size_leaf_vector":"1"}},{"base_weights":[3.6658294E-2,8.315525E-1,-1.9008242E-1,4.9776396E-1,1.0145085E0,6.688649E-1,-4.2883936E-1,9.6911097E-1,7.774128E-2,8.381838E-1,1.06308416E-1,2.8044742E-1,1.0208005E0,-7.6127154E-1,-1.2917794E-1,1.03456E0,-1.9263823E-2,-1.5099156E-1,8.8267714E-1,8.75253E-1,-6.119294E-3,1.6296063E-1,7.0844734E-1,1.03159584E-1,2.9635945E-2,-5.089043E-1,-9.653801E-1,5.986704E-1,-3.183872E-1,2.0961698E-2,1.0561694E0,8.304982E-2,-8.0195934E-1,9.597325E-1,1.1360777E-2,1.0626047E0,6.536384E-1,-1.5944341E-1,3.7108612E-1,9.0100414E-1,-7.909414E-2,-6.9642216E-1,-4.017674E-2,-1.1525742E0,-7.633499E-1,2.3005225E-1,7.046847E-1,1.0877123E-1,-3.3797503E-1,1.0787775E-1,3.239977E-2,-1.5776142E-2,9.3008436E-2,-9.830045E-2,9.989318E-3,1.8759592E-2,1.04838505E-1,1.0988628E-1,2.6573671E-2,9.801422E-2,2.538949E-2,6.2216908E-2,-3.3797484E-2,9.178351E-3,6.536721E-2,1.0301151E-1,6.1761118E-3,6.021594E-2,-5.256122E-2,-4.725244E-2,-9.327216E-2,2.819172E-2,-4.1154303E-2,-1.1682922E-1,-4.8210207E-2,1.06062904E-1,-8.387543E-2,-4.2427514E-2,4.429088E-2,7.528611E-2,1.756454E-2,-5.501882E-2,-2.134572E-2],"categories":[],"categories_nodes":[],"categories_segments":[],"categories_sizes":[],"default_left":[0,0,0,0,0,0,0,0,0,0,0,0,0,0,0,0,0,0,0,0,0,0,0,0,0,0,0,0,0,0,0,0,0,0,0,0,0,0,0,0,0,0,0,0,0,0,0,0,0,0,0,0,0,0,0,0,0,0,0,0,0,0,0,0,0,0,0,0,0,0,0,0,0,0,0,0,0,0,0,0,0,0,0],"id":15,"left_children":[1,3,5,7,9,11,13,15,17,19,-1,21,23,25,27,29,-1,31,33,35,-1,37,39,-1,-1,41,43,45,47,-1,49,51,53,55,-1,57,59,61,63,65,67,69,71,73,75,77,79,-1,81,-1,-1,-1,-1,-1,-1,-1,-1,-1,-1,-1,-1,-1,-1,-1,-1,-1,-1,-1,-1,-1,-1,-1,-1,-1,-1,-1,-1,-1,-1,-1,-1,-1,-1],"loss_changes":[1.745962E2,1.2623962E1,1.5488628E2,1.5382769E1,2.9013062E-1,2.2181046E1,5.8724876E1,2.9901772E0,7.935232E0,1.204195E0,0E0,3.8825617E0,3.6566925E-1,1.3917984E1,4.3124573E1,4.0084076E-1,0E0,5.2241273E0,4.5530844E-1,6.8440056E-1,0E0,4.3322887E0,2.6228209E0,0E0,0E0,1.1151855E1,4.92688E0,2.3651028E0,7.2005615E0,0E0,2.0940399E-1,5.4105725E0,1.5752115E0,3.866396E-1,0E0,1.8180847E-1,2.0760722E0,3.7939947E0,3.0181932E0,1.4100904E0,1.6017101E0,4.3626366E0,4.5904E0,2.5597382E-1,1.145303E1,2.406526E0,1.1355076E0,0E0,6.3682117E0,0E0,0E0,0E0,0E0,0E0,0E0,0E0,0E0,0E0,0E0,0E0,0E0,0E0,0E0,0E0,0E0,0E0,0E0,0E0,0E0,0E0,0E0,0E0,0E0,0E0,0E0,0E0,0E0,0E0,0E0,0E0,0E0,0E0,